  DATE: 2024-10-31 CONTRIBUTOR: Shuozhi Xu (shuozhixu@ou.edu)
  CITATION: Subah Mubassira, Mahshad Fani, Anshu Raj et al., J. Appl. Phys. (2025)
  Generated from https://www.ctcms.nist.gov/potentials/Download/2004--Zhou-X-W-Johnson-R-A-Wadley-H-N-G--Mg/3/Zhou04_create_v2.f
    8 Hf Mo Nb Ta Ti V W Zr   
 2000  0.1133684583414624E+00 2000  0.3579473904204014E-02  0.7155368334503824E+01
   72     178.49         4.4548    fcc     
  0.0000000000000000E+00 -0.6144540804786347E-01 -0.1223409277321261E+00 -0.1826890515333437E+00 -0.2424922719320777E+00
 -0.3017530814088847E+00 -0.3604739724443231E+00 -0.4186574375189558E+00 -0.4763059691133362E+00 -0.5334220597080277E+00
 -0.5900082017835864E+00 -0.6460668878205720E+00 -0.7016006102995451E+00 -0.7566118617010602E+00 -0.8111031345056792E+00
 -0.8650769211939608E+00 -0.9185357142464627E+00 -0.9714820061437459E+00 -0.1023918289366367E+01 -0.1075847056394885E+01
 -0.1127270799709859E+01 -0.1178192011791849E+01 -0.1228613185121413E+01 -0.1278536812179110E+01 -0.1327965385445498E+01
 -0.1376901397401137E+01 -0.1425347340526585E+01 -0.1473305707302400E+01 -0.1520778990209145E+01 -0.1567769681727373E+01
 -0.1614280274337646E+01 -0.1660313260520523E+01 -0.1705871132756561E+01 -0.1750956383526321E+01 -0.1795571505310361E+01
 -0.1839718990589240E+01 -0.1883401331843516E+01 -0.1926621021553748E+01 -0.1969380552200497E+01 -0.2011682416264318E+01
 -0.2053529106225772E+01 -0.2094923114565419E+01 -0.2135866933763815E+01 -0.2176363056301521E+01 -0.2216413974659095E+01
 -0.2256022181317096E+01 -0.2295190168756083E+01 -0.2333920429456614E+01 -0.2372215455899250E+01 -0.2410077740564546E+01
 -0.2447509775933066E+01 -0.2484514054485362E+01 -0.2521093068701998E+01 -0.2557249311063534E+01 -0.2592985274050525E+01
 -0.2628303450143531E+01 -0.2663206331823112E+01 -0.2697696411569824E+01 -0.2731776181864229E+01 -0.2765448135186884E+01
 -0.2798714764018349E+01 -0.2831578560839182E+01 -0.2864042018129942E+01 -0.2896107628371187E+01 -0.2927777884043477E+01
 -0.2959055277627371E+01 -0.2989942301603427E+01 -0.3020441448452205E+01 -0.3050555210654261E+01 -0.3080286080690158E+01
 -0.3109636551040451E+01 -0.3138609114185702E+01 -0.3167206262606467E+01 -0.3195430488783307E+01 -0.3223284285196779E+01
 -0.3250770144327444E+01 -0.3277890558655859E+01 -0.3304648020662582E+01 -0.3331045022828174E+01 -0.3357084057633194E+01
 -0.3382767617558200E+01 -0.3408098195083750E+01 -0.3433078282690403E+01 -0.3457710372858719E+01 -0.3481996958069256E+01
 -0.3505940530802574E+01 -0.3529543583539230E+01 -0.3552808608759784E+01 -0.3575738098944794E+01 -0.3598334546574818E+01
 -0.3620600444130419E+01 -0.3642538284092151E+01 -0.3664150558940576E+01 -0.3685439761156251E+01 -0.3706408383219735E+01
 -0.3727058917611588E+01 -0.3747393856812368E+01 -0.3767415693302634E+01 -0.3787126919562945E+01 -0.3806530028073858E+01
 -0.3825627511315936E+01 -0.3844421861769733E+01 -0.3862915571915811E+01 -0.3881111134234727E+01 -0.3899011041207042E+01
 -0.3916617785313313E+01 -0.3933933859034100E+01 -0.3950961754849959E+01 -0.3967703965241454E+01 -0.3984162982689139E+01
 -0.4000341299673575E+01 -0.4016241408675321E+01 -0.4031865802174935E+01 -0.4047216972652977E+01 -0.4062297412590002E+01
 -0.4077109614466575E+01 -0.4091656070763251E+01 -0.4105939273960589E+01 -0.4119961716539148E+01 -0.4133725890979488E+01
 -0.4147234289762165E+01 -0.4160489405367741E+01 -0.4173493730276774E+01 -0.4186249756969823E+01 -0.4198759977927445E+01
 -0.4211026885630201E+01 -0.4223052972558647E+01 -0.4234840731193345E+01 -0.4246392654014853E+01 -0.4257711233503730E+01
 -0.4268798962140532E+01 -0.4279658332405821E+01 -0.4290291836780155E+01 -0.4300701967744093E+01 -0.4310891217778193E+01
 -0.4320862079363015E+01 -0.4330617044979117E+01 -0.4340158607107057E+01 -0.4349489258227396E+01 -0.4358611490820691E+01
 -0.4367527797367501E+01 -0.4376240670348386E+01 -0.4384752602243904E+01 -0.4393066085534614E+01 -0.4401183612701075E+01
 -0.4409107676223845E+01 -0.4416840768583484E+01 -0.4424385382260550E+01 -0.4431744009735602E+01 -0.4438919143489199E+01
 -0.4445913276001900E+01 -0.4452728899754263E+01 -0.4459368507226848E+01 -0.4465834590900212E+01 -0.4472129643254916E+01
 -0.4478256156771518E+01 -0.4484216623930577E+01 -0.4490013537212650E+01 -0.4495649389098299E+01 -0.4501126672068080E+01
 -0.4506447878602553E+01 -0.4511615501182278E+01 -0.4516632032287812E+01 -0.4521499964399714E+01 -0.4526221789998543E+01
 -0.4530800001564860E+01 -0.4535237091579219E+01 -0.4539535552522184E+01 -0.4543697876874311E+01 -0.4547726557116160E+01
 -0.4551624085728289E+01 -0.4555392955191256E+01 -0.4559035657985621E+01 -0.4562554686591944E+01 -0.4565952533490782E+01
 -0.4569231691162695E+01 -0.4572394652088240E+01 -0.4575443908747977E+01 -0.4578381953622466E+01 -0.4581211279192265E+01
 -0.4583934377937932E+01 -0.4586553742340026E+01 -0.4589071864879105E+01 -0.4591491238035730E+01 -0.4593814354290459E+01
 -0.4596043706123852E+01 -0.4598181786016465E+01 -0.4600231086448859E+01 -0.4602194099901591E+01 -0.4604073318855221E+01
 -0.4605871235790309E+01 -0.4607590343187411E+01 -0.4609233133527089E+01 -0.4610802099289899E+01 -0.4612299732956402E+01
 -0.4613728527007154E+01 -0.4615090973922718E+01 -0.4616389566183651E+01 -0.4617626796270510E+01 -0.4618805156663855E+01
 -0.4619927139844246E+01 -0.4620995238292240E+01 -0.4622011944488396E+01 -0.4622979750913276E+01 -0.4623901150047435E+01
 -0.4624778634371434E+01 -0.4625614696365830E+01 -0.4626411828511181E+01 -0.4627172523288050E+01 -0.4627899273176993E+01
 -0.4628594570658570E+01 -0.4629260908213339E+01 -0.4629900778321858E+01 -0.4630516386942321E+01 -0.4631108539858258E+01
 -0.4631677615805728E+01 -0.4632223993416830E+01 -0.4632748051323658E+01 -0.4633250168158309E+01 -0.4633730722552879E+01
 -0.4634190093139464E+01 -0.4634628658550161E+01 -0.4635046797417067E+01 -0.4635444888372276E+01 -0.4635823310047885E+01
 -0.4636182441075992E+01 -0.4636522660088691E+01 -0.4636844345718078E+01 -0.4637147876596252E+01 -0.4637433631355306E+01
 -0.4637701988627339E+01 -0.4637953327044446E+01 -0.4638188025238723E+01 -0.4638406461842266E+01 -0.4638609015487171E+01
 -0.4638796064805537E+01 -0.4638967988429457E+01 -0.4639125164991028E+01 -0.4639267973122347E+01 -0.4639396791455511E+01
 -0.4639511998622614E+01 -0.4639613973255753E+01 -0.4639703093987025E+01 -0.4639779739448525E+01 -0.4639844288272352E+01
 -0.4639897119090598E+01 -0.4639938610535363E+01 -0.4639969141238742E+01 -0.4639989089832831E+01 -0.4639998834949725E+01
 -0.4639998755221522E+01 -0.4639989229280317E+01 -0.4639970635758209E+01 -0.4639943353287291E+01 -0.4639907760499660E+01
 -0.4639864236027412E+01 -0.4639813158502646E+01 -0.4639754906557454E+01 -0.4639689858823934E+01 -0.4639618393934184E+01
 -0.4639540890520299E+01 -0.4639457727214375E+01 -0.4639369282648507E+01 -0.4639275935454793E+01 -0.4639178064265330E+01
 -0.4639076047712212E+01 -0.4638970264427535E+01 -0.4638861093043398E+01 -0.4638748912191895E+01 -0.4638634100505124E+01
 -0.4638517036615179E+01 -0.4638398099154157E+01 -0.4638277666754155E+01 -0.4638156118047270E+01 -0.4638033831665596E+01
 -0.4637911186241231E+01 -0.4637788560406269E+01 -0.4637666332792810E+01 -0.4637544882032946E+01 -0.4637424586758776E+01
 -0.4637305825602397E+01 -0.4637188977195901E+01 -0.4637074420171388E+01 -0.4636962533160955E+01 -0.4636853694796693E+01
 -0.4636748283710705E+01 -0.4636646678535082E+01 -0.4636549233526884E+01 -0.4636452408281584E+01 -0.4636353486336793E+01
 -0.4636252487215303E+01 -0.4636149430211688E+01 -0.4636044334395660E+01 -0.4635937218615370E+01 -0.4635828101500642E+01
 -0.4635717001466161E+01 -0.4635603936714600E+01 -0.4635488925239686E+01 -0.4635371984829222E+01 -0.4635253133068043E+01
 -0.4635132387340938E+01 -0.4635009764835501E+01 -0.4634885282544952E+01 -0.4634758957270895E+01 -0.4634630805626030E+01
 -0.4634500844036825E+01 -0.4634369088746146E+01 -0.4634235555815815E+01 -0.4634100261129166E+01 -0.4633963220393517E+01
 -0.4633824449142636E+01 -0.4633683962739130E+01 -0.4633541776376826E+01 -0.4633397905083091E+01 -0.4633252363721121E+01
 -0.4633105166992191E+01 -0.4632956329437867E+01 -0.4632805865442181E+01 -0.4632653789233775E+01 -0.4632500114887995E+01
 -0.4632344856328975E+01 -0.4632188027331659E+01 -0.4632029641523815E+01 -0.4631869712387997E+01 -0.4631708253263484E+01
 -0.4631545277348194E+01 -0.4631380797700548E+01 -0.4631214827241327E+01 -0.4631047378755478E+01 -0.4630878464893909E+01
 -0.4630708098175242E+01 -0.4630536290987547E+01 -0.4630363055590044E+01 -0.4630188404114772E+01 -0.4630012348568258E+01
 -0.4629834900833115E+01 -0.4629656072669658E+01 -0.4629475875717472E+01 -0.4629294321496963E+01 -0.4629111421410874E+01
 -0.4628927186745801E+01 -0.4628741628673654E+01 -0.4628554758253121E+01 -0.4628366586431106E+01 -0.4628177124044124E+01
 -0.4627986381819706E+01 -0.4627794370377758E+01 -0.4627601100231908E+01 -0.4627406581790836E+01 -0.4627210825359579E+01
 -0.4627013841140819E+01 -0.4626815639236149E+01 -0.4626616229647321E+01 -0.4626415622277478E+01 -0.4626213826932362E+01
 -0.4626010853321515E+01 -0.4625806711059443E+01 -0.4625601409666786E+01 -0.4625394958571451E+01 -0.4625187367109741E+01
 -0.4624978644527459E+01 -0.4624768799981006E+01 -0.4624557842538451E+01 -0.4624345781180592E+01 -0.4624132624802001E+01
 -0.4623918382212059E+01 -0.4623703062135961E+01 -0.4623486673215724E+01 -0.4623269224011169E+01 -0.4623050723000892E+01
 -0.4622831178583224E+01 -0.4622610599077175E+01 -0.4622388992723362E+01 -0.4622166367684930E+01 -0.4621942732048450E+01
 -0.4621718093824820E+01 -0.4621492460950137E+01 -0.4621265841286564E+01 -0.4621038242623190E+01 -0.4620809672676866E+01
 -0.4620580139093037E+01 -0.4620349649446570E+01 -0.4620118211242549E+01 -0.4619885831917078E+01 -0.4619652518838072E+01
 -0.4619418279306021E+01 -0.4619183120554762E+01 -0.4618947049752231E+01 -0.4618710074001207E+01 -0.4618472200340044E+01
 -0.4618233435743394E+01 -0.4617993787122924E+01 -0.4617753261328016E+01 -0.4617511865146465E+01 -0.4617269605305161E+01
 -0.4617026488470767E+01 -0.4616782521250387E+01 -0.4616537710192214E+01 -0.4616292061786202E+01 -0.4616045582464676E+01
 -0.4615798278602989E+01 -0.4615550156520134E+01 -0.4615301222479363E+01 -0.4615051482688788E+01 -0.4614800943301995E+01
 -0.4614549610418615E+01 -0.4614297490084928E+01 -0.4614044588294421E+01 -0.4613790910988373E+01 -0.4613536464056404E+01
 -0.4613281253337033E+01 -0.4613025284618225E+01 -0.4612768563637934E+01 -0.4612511096084631E+01 -0.4612252887597826E+01
 -0.4611993943768601E+01 -0.4611734270140109E+01 -0.4611473872208085E+01 -0.4611212755421346E+01 -0.4610950925182284E+01
 -0.4610688386847355E+01 -0.4610425145727550E+01 -0.4610161207088886E+01 -0.4609896576152861E+01 -0.4609631258096920E+01
 -0.4609365258054916E+01 -0.4609098581117562E+01 -0.4608831232332869E+01 -0.4608563216706592E+01 -0.4608294539202664E+01
 -0.4608025204743625E+01 -0.4607755218211046E+01 -0.4607484584445947E+01 -0.4607213308249212E+01 -0.4606941394381996E+01
 -0.4606668847566128E+01 -0.4606395672484513E+01 -0.4606121873781523E+01 -0.4605847456063385E+01 -0.4605572423898569E+01
 -0.4605296781818162E+01 -0.4605020534316250E+01 -0.4604743685850279E+01 -0.4604466240841430E+01 -0.4604188203674981E+01
 -0.4603909578700650E+01 -0.4603630370232969E+01 -0.4603350582551612E+01 -0.4603070219901757E+01 -0.4602789286494414E+01
 -0.4602507786506771E+01 -0.4602225724082516E+01 -0.4601943103332174E+01 -0.4601659928333431E+01 -0.4601376203131450E+01
 -0.4601091931739190E+01 -0.4600807118137720E+01 -0.4600521766276533E+01 -0.4600235880073843E+01 -0.4599949463416891E+01
 -0.4599662520162251E+01 -0.4599375054136116E+01 -0.4599087069134592E+01 -0.4598798568923992E+01 -0.4598509557241115E+01
 -0.4598220037793532E+01 -0.4597930014259864E+01 -0.4597639490290057E+01 -0.4597348469505652E+01 -0.4597056955500063E+01
 -0.4596764951838832E+01 -0.4596472462059899E+01 -0.4596179489673864E+01 -0.4595886038164238E+01 -0.4595592110987702E+01
 -0.4595297711574357E+01 -0.4595002843327974E+01 -0.4594707509626237E+01 -0.4594411713820991E+01 -0.4594115459238478E+01
 -0.4593818749179576E+01 -0.4593521586920035E+01 -0.4593223975710712E+01 -0.4592925918777794E+01 -0.4592627419323028E+01
 -0.4592328480523954E+01 -0.4592029105534113E+01 -0.4591729297483282E+01 -0.4591429059477676E+01 -0.4591128394600179E+01
 -0.4590827305910541E+01 -0.4590525796445607E+01 -0.4590223869219502E+01 -0.4589921527223858E+01 -0.4589618773428007E+01
 -0.4589315610779184E+01 -0.4589012042202725E+01 -0.4588708070602269E+01 -0.4588403698859950E+01 -0.4588098929836584E+01
 -0.4587793766371873E+01 -0.4587488211284581E+01 -0.4587182267372726E+01 -0.4586875937413768E+01 -0.4586569224164786E+01
 -0.4586262130362662E+01 -0.4585954658724257E+01 -0.4585646811946593E+01 -0.4585338592707024E+01 -0.4585030003663412E+01
 -0.4584721047454291E+01 -0.4584411726699052E+01 -0.4584102043998092E+01 -0.4583792001932997E+01 -0.4583481603066692E+01
 -0.4583170849943617E+01 -0.4582859745089878E+01 -0.4582548291013407E+01 -0.4582236490204129E+01 -0.4581924345134106E+01
 -0.4581611858257697E+01 -0.4581299032011713E+01 -0.4580985868815562E+01 -0.4580672371071405E+01 -0.4580358541164300E+01
 -0.4580044381462350E+01 -0.4579729894316846E+01 -0.4579415082062416E+01 -0.4579099947017159E+01 -0.4578784491482795E+01
 -0.4578468717744795E+01 -0.4578152628072527E+01 -0.4577836224719384E+01 -0.4577519509922929E+01 -0.4577202485905018E+01
 -0.4576885154871943E+01 -0.4576567519014550E+01 -0.4576249580508387E+01 -0.4575931341513810E+01 -0.4575612804176131E+01
 -0.4575293970625729E+01 -0.4574974842978182E+01 -0.4574655423334388E+01 -0.4574335713780687E+01 -0.4574015716388986E+01
 -0.4573695433216868E+01 -0.4573374866307724E+01 -0.4573054017690861E+01 -0.4572732889381621E+01 -0.4572411483381496E+01
 -0.4572089801678242E+01 -0.4571767846245992E+01 -0.4571445619045367E+01 -0.4571123122023589E+01 -0.4570800357114583E+01
 -0.4570477326239096E+01 -0.4570154031304799E+01 -0.4569830474206389E+01 -0.4569506656825703E+01 -0.4569182581031818E+01
 -0.4568858248681152E+01 -0.4568533661617568E+01 -0.4568208821672481E+01 -0.4567883730664946E+01 -0.4567558390401772E+01
 -0.4567232802677609E+01 -0.4566906969275046E+01 -0.4566580891964720E+01 -0.4566254572505394E+01 -0.4565928012644064E+01
 -0.4565601214116048E+01 -0.4565274178645080E+01 -0.4564946907943404E+01 -0.4564619403711860E+01 -0.4564291667639979E+01
 -0.4563963701406070E+01 -0.4563635506677310E+01 -0.4563307085109832E+01 -0.4562978438348808E+01 -0.4562649568028543E+01
 -0.4562320475772549E+01 -0.4561991163193643E+01 -0.4561661631894020E+01 -0.4561331883465336E+01 -0.4561001919488805E+01
 -0.4560671741535259E+01 -0.4560341351165241E+01 -0.4560010749929086E+01 -0.4559679939366993E+01 -0.4559348921009113E+01
 -0.4559017696375617E+01 -0.4558686266976776E+01 -0.4558354634313041E+01 -0.4558022799875118E+01 -0.4557690765144038E+01
 -0.4557358531591234E+01 -0.4557026100678617E+01 -0.4556693473858644E+01 -0.4556360652574396E+01 -0.4556027638259645E+01
 -0.4555694432338925E+01 -0.4555361036227605E+01 -0.4555027451331957E+01 -0.4554693679049227E+01 -0.4554359720767697E+01
 -0.4554025577866764E+01 -0.4553691251716995E+01 -0.4553356743680201E+01 -0.4553022055109500E+01 -0.4552687187349388E+01
 -0.4552352141735792E+01 -0.4552016919596150E+01 -0.4551681522249456E+01 -0.4551345951006342E+01 -0.4551010207169126E+01
 -0.4550674292031884E+01 -0.4550338206880504E+01 -0.4550001952992750E+01 -0.4549665531638323E+01 -0.4549328944078921E+01
 -0.4548992191568295E+01 -0.4548655275352310E+01 -0.4548318196669006E+01 -0.4547980956748653E+01 -0.4547643556813803E+01
 -0.4547305998079358E+01 -0.4546968281752618E+01 -0.4546630409033336E+01 -0.4546292381113781E+01 -0.4545954199178784E+01
 -0.4545615864405799E+01 -0.4545277377964952E+01 -0.4544938741019098E+01 -0.4544599954723869E+01 -0.4544261020227735E+01
 -0.4543921938672046E+01 -0.4543582711191092E+01 -0.4543243338912146E+01 -0.4542903822955523E+01 -0.4542564164434625E+01
 -0.4542224364455992E+01 -0.4541884424119349E+01 -0.4541544344517662E+01 -0.4541204126737179E+01 -0.4540863771857482E+01
 -0.4540523280951533E+01 -0.4540182655085721E+01 -0.4539841895319916E+01 -0.4539501002707500E+01 -0.4539159978295431E+01
 -0.4538818823124275E+01 -0.4538477538228261E+01 -0.4538136124635319E+01 -0.4537794583367127E+01 -0.4537452915439157E+01
 -0.4537111121860718E+01 -0.4536769203634996E+01 -0.4536427161759104E+01 -0.4536084997224116E+01 -0.4535742711015118E+01
 -0.4535400304111246E+01 -0.4535057777485723E+01 -0.4534715132105913E+01 -0.4534372368933350E+01 -0.4534029488923782E+01
 -0.4533686493027214E+01 -0.4533343382187947E+01 -0.4533000157344615E+01 -0.4532656819430229E+01 -0.4532313369372211E+01
 -0.4531969808092437E+01 -0.4531626136507271E+01 -0.4531282355527606E+01 -0.4530938466058909E+01 -0.4530594469001236E+01
 -0.4530250365249298E+01 -0.4529906155692477E+01 -0.4529561841214870E+01 -0.4529217422695327E+01 -0.4528872901007481E+01
 -0.4528528277019790E+01 -0.4528183551595570E+01 -0.4527838725593028E+01 -0.4527493799865301E+01 -0.4527148775260484E+01
 -0.4526803652621675E+01 -0.4526458432786995E+01 -0.4526113116589634E+01 -0.4525767704857881E+01 -0.4525422198415150E+01
 -0.4525076598080022E+01 -0.4524730904666278E+01 -0.4524385118982918E+01 -0.4524039241834215E+01 -0.4523693274019725E+01
 -0.4523347216334333E+01 -0.4523001069568279E+01 -0.4522654834507190E+01 -0.4522308511932110E+01 -0.4521962102619534E+01
 -0.4521615607341430E+01 -0.4521269026865282E+01 -0.4520922361954109E+01 -0.4520575613366498E+01 -0.4520228781856638E+01
 -0.4519881868174340E+01 -0.4519534873065076E+01 -0.4519187797270003E+01 -0.4518840641525983E+01 -0.4518493406565633E+01
 -0.4518146093117332E+01 -0.4517798701905257E+01 -0.4517451233649414E+01 -0.4517103689065660E+01 -0.4516756068865732E+01
 -0.4516408373757273E+01 -0.4516060604443868E+01 -0.4515712761625051E+01 -0.4515364845996351E+01 -0.4515016858249308E+01
 -0.4514668799071504E+01 -0.4514320669146581E+01 -0.4513972469154278E+01 -0.4513624199770445E+01 -0.4513275861667076E+01
 -0.4512927455512331E+01 -0.4512578981970564E+01 -0.4512230441702340E+01 -0.4511881835364467E+01 -0.4511533163610019E+01
 -0.4511184427088357E+01 -0.4510835626445155E+01 -0.4510486762322424E+01 -0.4510137835358536E+01 -0.4509788846188243E+01
 -0.4509439795442708E+01 -0.4509090683749520E+01 -0.4508741511732723E+01 -0.4508392280012835E+01 -0.4508042989206871E+01
 -0.4507693639928368E+01 -0.4507344232787402E+01 -0.4506994768390617E+01 -0.4506645247341241E+01 -0.4506295670239109E+01
 -0.4505946037680687E+01 -0.4505596350259091E+01 -0.4505246608564107E+01 -0.4504896813182216E+01 -0.4504546964696613E+01
 -0.4504197063687226E+01 -0.4503847110730737E+01 -0.4503497106400609E+01 -0.4503147051267091E+01 -0.4502796945897259E+01
 -0.4502446790855017E+01 -0.4502096586701128E+01 -0.4501746333993228E+01 -0.4501396033285851E+01 -0.4501045685130443E+01
 -0.4500695290075384E+01 -0.4500344848666010E+01 -0.4499994361444622E+01 -0.4499643828950517E+01 -0.4499293251719998E+01
 -0.4498942630286400E+01 -0.4498591965180099E+01 -0.4498241256928538E+01 -0.4497890506056245E+01 -0.4497539713084844E+01
 -0.4497188878533081E+01 -0.4496838002916837E+01 -0.4496487086749148E+01 -0.4496136130540221E+01 -0.4495785134797452E+01
 -0.4495434100025442E+01 -0.4495083026726019E+01 -0.4494731915398247E+01 -0.4494380766538449E+01 -0.4494029580640224E+01
 -0.4493678358194459E+01 -0.4493327099689352E+01 -0.4492975805610418E+01 -0.4492624476440518E+01 -0.4492273112659868E+01
 -0.4491921714746056E+01 -0.4491570283174056E+01 -0.4491218818416250E+01 -0.4490867320942438E+01 -0.4490515791219853E+01
 -0.4490164229713183E+01 -0.4489812636884579E+01 -0.4489461013193678E+01 -0.4489109359097609E+01 -0.4488757675051017E+01
 -0.4488405961506069E+01 -0.4488054218912479E+01 -0.4487702447717514E+01 -0.4487350648366018E+01 -0.4486998821300411E+01
 -0.4486646966960722E+01 -0.4486295085784589E+01 -0.4485943178207283E+01 -0.4485591244661716E+01 -0.4485239285578456E+01
 -0.4484887301385744E+01 -0.4484535292509506E+01 -0.4484183259373365E+01 -0.4483831202398657E+01 -0.4483479122004447E+01
 -0.4483127018607531E+01 -0.4482774892622470E+01 -0.4482422744461581E+01 -0.4482070574534965E+01 -0.4481718383250514E+01
 -0.4481366171013926E+01 -0.4481013938228718E+01 -0.4480661685296237E+01 -0.4480309412615675E+01 -0.4479957120584080E+01
 -0.4479604809596371E+01 -0.4479252480045346E+01 -0.4478900132321699E+01 -0.4478547766814032E+01 -0.4478195383908862E+01
 -0.4477842983990641E+01 -0.4477490567441761E+01 -0.4477138134642571E+01 -0.4476785685971385E+01 -0.4476433221804500E+01
 -0.4476080742516197E+01 -0.4475728248478766E+01 -0.4475375740062506E+01 -0.4475023217635744E+01 -0.4474670681564844E+01
 -0.4474318132214217E+01 -0.4473965569946331E+01 -0.4473612995121732E+01 -0.4473260408099040E+01 -0.4472907809234973E+01
 -0.4472555198884350E+01 -0.4472202577400108E+01 -0.4471849945133306E+01 -0.4471497302433143E+01 -0.4471144649646962E+01
 -0.4470791987120267E+01 -0.4470439315196726E+01 -0.4470086634218191E+01 -0.4469733944524700E+01 -0.4469381246454491E+01
 -0.4469028540344013E+01 -0.4468675826527933E+01 -0.4468323105339151E+01 -0.4467970377108808E+01 -0.4467617642166289E+01
 -0.4467264900839247E+01 -0.4466912153453601E+01 -0.4466559400333551E+01 -0.4466206641801588E+01 -0.4465853878178501E+01
 -0.4465501109783387E+01 -0.4465148336933663E+01 -0.4464795559945077E+01 -0.4464442779131709E+01 -0.4464089994805988E+01
 -0.4463737207278705E+01 -0.4463384416859007E+01 -0.4463031623854423E+01 -0.4462678828570862E+01 -0.4462326031312628E+01
 -0.4461973232382427E+01 -0.4461620432081372E+01 -0.4461267630709004E+01 -0.4460914828563282E+01 -0.4460562025940614E+01
 -0.4460209223135844E+01 -0.4459856420442278E+01 -0.4459503618151682E+01 -0.4459150816554294E+01 -0.4458798015938835E+01
 -0.4458445216592511E+01 -0.4458092418801031E+01 -0.4457739622848605E+01 -0.4457386829017959E+01 -0.4457034037590342E+01
 -0.4456681248845530E+01 -0.4456328463061841E+01 -0.4455975680516139E+01 -0.4455622901483843E+01 -0.4455270126238934E+01
 -0.4454917355053966E+01 -0.4454564588200064E+01 -0.4454211825946951E+01 -0.4453859068562932E+01 -0.4453506316314924E+01
 -0.4453153569468445E+01 -0.4452800828287639E+01 -0.4452448093035268E+01 -0.4452095363972728E+01 -0.4451742641360056E+01
 -0.4451389925455934E+01 -0.4451037216517701E+01 -0.4450684514801357E+01 -0.4450331820561570E+01 -0.4449979134051688E+01
 -0.4449626455523736E+01 -0.4449273785228440E+01 -0.4448921123415214E+01 -0.4448568470332185E+01 -0.4448215826226183E+01
 -0.4447863191342767E+01 -0.4447510565926216E+01 -0.4447157950219545E+01 -0.4446805344464506E+01 -0.4446452748901597E+01
 -0.4446100163770077E+01 -0.4445747589307954E+01 -0.4445395025752012E+01 -0.4445042473337802E+01 -0.4444689932299658E+01
 -0.4444337402870702E+01 -0.4443984885282848E+01 -0.4443632379766808E+01 -0.4443279886552101E+01 -0.4442927405867061E+01
 -0.4442574937938836E+01 -0.4442222482993404E+01 -0.4441870041255572E+01 -0.4441517612948985E+01 -0.4441165198296131E+01
 -0.4440812797518351E+01 -0.4440460410835840E+01 -0.4440108038467654E+01 -0.4439755680631723E+01 -0.4439403337544844E+01
 -0.4439051009422699E+01 -0.4438698696479857E+01 -0.4438346398929776E+01 -0.4437994116984816E+01 -0.4437641850856236E+01
 -0.4437289600754212E+01 -0.4436937366887826E+01 -0.4436585149465092E+01 -0.4436232948692942E+01 -0.4435880764777245E+01
 -0.4435528597922810E+01 -0.4435176448333386E+01 -0.4434824316211674E+01 -0.4434472201759327E+01 -0.4434120105176965E+01
 -0.4433768026664167E+01 -0.4433415966419487E+01 -0.4433063924640453E+01 -0.4432711901523581E+01 -0.4432359897264370E+01
 -0.4432007912057310E+01 -0.4431655946095896E+01 -0.4431303999572618E+01 -0.4430952072678982E+01 -0.4430600165605504E+01
 -0.4430248278541718E+01 -0.4429896411676185E+01 -0.4429544565196493E+01 -0.4429192739289266E+01 -0.4428840934140164E+01
 -0.4428489149933893E+01 -0.4428137386854210E+01 -0.4427785645083925E+01 -0.4427433924804906E+01 -0.4427082226198085E+01
 -0.4426730549443461E+01 -0.4426378894720113E+01 -0.4426027262206190E+01 -0.4425675652078931E+01 -0.4425324064514658E+01
 -0.4424972499688790E+01 -0.4424620957775839E+01 -0.4424269438949421E+01 -0.4423917943382259E+01 -0.4423566471246186E+01
 -0.4423215022712151E+01 -0.4422863597950224E+01 -0.4422512197129600E+01 -0.4422160820418600E+01 -0.4421809467984684E+01
 -0.4421458139994447E+01 -0.4421106836613626E+01 -0.4420755558007106E+01 -0.4420404304338925E+01 -0.4420053075772273E+01
 -0.4419701872469504E+01 -0.4419350694592133E+01 -0.4418999542300847E+01 -0.4418648415755501E+01 -0.4418297315115132E+01
 -0.4417946240537955E+01 -0.4417595192181373E+01 -0.4417244170201974E+01 -0.4416893174755546E+01 -0.4416542205997069E+01
 -0.4416191264080728E+01 -0.4415840349159913E+01 -0.4415489461387224E+01 -0.4415138600914475E+01 -0.4414787767892697E+01
 -0.4414436962472144E+01 -0.4414086184802295E+01 -0.4413735435031859E+01 -0.4413384713308777E+01 -0.4413034019780231E+01
 -0.4412683354592642E+01 -0.4412332717891673E+01 -0.4411982109822243E+01 -0.4411631530528518E+01 -0.4411280980153922E+01
 -0.4410930458841140E+01 -0.4410579966732120E+01 -0.4410229503968077E+01 -0.4409879070689499E+01 -0.4409528667036148E+01
 -0.4409178293147063E+01 -0.4408827949160567E+01 -0.4408477635214269E+01 -0.4408127351445066E+01 -0.4407777097989149E+01
 -0.4407426874982003E+01 -0.4407076682558419E+01 -0.4406726520852482E+01 -0.4406376389997591E+01 -0.4406026290126452E+01
 -0.4405676221371088E+01 -0.4405326183862837E+01 -0.4404976177732355E+01 -0.4404626203109626E+01 -0.4404276260123962E+01
 -0.4403926348903999E+01 -0.4403576469577714E+01 -0.4403226622272418E+01 -0.4402876807114763E+01 -0.4402527024230744E+01
 -0.4402177273745704E+01 -0.4401827555784338E+01 -0.4401477870470690E+01 -0.4401128217928164E+01 -0.4400778598279524E+01
 -0.4400429011646893E+01 -0.4400079458151765E+01 -0.4399729937915001E+01 -0.4399380451056835E+01 -0.4399030997696874E+01
 -0.4398681577954108E+01 -0.4398332191946903E+01 -0.4397982839793015E+01 -0.4397633521609584E+01 -0.4397284237513143E+01
 -0.4396934987619614E+01 -0.4396585772044324E+01 -0.4396236590901990E+01 -0.4395887444306736E+01 -0.4395538332372094E+01
 -0.4395189255210998E+01 -0.4394840212935801E+01 -0.4394491205658260E+01 -0.4394142233489559E+01 -0.4393793296540294E+01
 -0.4393444394920488E+01 -0.4393095528739590E+01 -0.4392746698106472E+01 -0.4392397903129443E+01 -0.4392049143916239E+01
 -0.4391700420574042E+01 -0.4391351733209462E+01 -0.4391003081928560E+01 -0.4390654466836837E+01 -0.4390305888039242E+01
 -0.4389957345640174E+01 -0.4389608839743485E+01 -0.4389260370452484E+01 -0.4388911937869935E+01 -0.4388563542098064E+01
 -0.4388215183238558E+01 -0.4387866861392575E+01 -0.4387518576660736E+01 -0.4387170329143133E+01 -0.4386822118939336E+01
 -0.4386473946148388E+01 -0.4386125810868807E+01 -0.4385777713198602E+01 -0.4385429653235254E+01 -0.4385081631075738E+01
 -0.4384733646816512E+01 -0.4384385700553529E+01 -0.4384037792382234E+01 -0.4383689922397565E+01 -0.4383342090693965E+01
 -0.4382994297365369E+01 -0.4382646542505223E+01 -0.4382298826206471E+01 -0.4381951148561570E+01 -0.4381603509662487E+01
 -0.4381255909600696E+01 -0.4380908348467192E+01 -0.4380560826352483E+01 -0.4380213343346600E+01 -0.4379865899539092E+01
 -0.4379518495019033E+01 -0.4379171129875026E+01 -0.4378823804195195E+01 -0.4378476518067205E+01 -0.4378129271578246E+01
 -0.4377782064815046E+01 -0.4377434897863870E+01 -0.4377087770810522E+01 -0.4376740683740350E+01 -0.4376393636738242E+01
 -0.4376046629888636E+01 -0.4375699663275515E+01 -0.4375352736982414E+01 -0.4375005851092420E+01 -0.4374659005688176E+01
 -0.4374312200851879E+01 -0.4373965436665287E+01 -0.4373618713209718E+01 -0.4373272030566050E+01 -0.4372925388814734E+01
 -0.4372578788035780E+01 -0.4372232228308770E+01 -0.4371885709712857E+01 -0.4371539232326767E+01 -0.4371192796228803E+01
 -0.4370846401496843E+01 -0.4370500048208344E+01 -0.4370153736440344E+01 -0.4369807466269465E+01 -0.4369461237771915E+01
 -0.4369115051023487E+01 -0.4368768906099564E+01 -0.4368422803075119E+01 -0.4368076742024717E+01 -0.4367730723022520E+01
 -0.4367384746142285E+01 -0.4367038811457369E+01 -0.4366692919040725E+01 -0.4366347068964914E+01 -0.4366001261302096E+01
 -0.4365655496124043E+01 -0.4365309773502126E+01 -0.4364964093507334E+01 -0.4364618456210261E+01 -0.4364272861681118E+01
 -0.4363927309989730E+01 -0.4363581801205538E+01 -0.4363236335397603E+01 -0.4362890912634604E+01 -0.4362545532984845E+01
 -0.4362200196516251E+01 -0.4361854903296374E+01 -0.4361509653392394E+01 -0.4361164446871120E+01 -0.4360819283798988E+01
 -0.4360474164242073E+01 -0.4360129088266079E+01 -0.4359784055936347E+01 -0.4359439067317857E+01 -0.4359094122475229E+01
 -0.4358749221472718E+01 -0.4358404364374227E+01 -0.4358059551243305E+01 -0.4357714782143142E+01 -0.4357370057136577E+01
 -0.4357025376286098E+01 -0.4356680739653845E+01 -0.4356336147301608E+01 -0.4355991599290834E+01 -0.4355647095682626E+01
 -0.4355302636537736E+01 -0.4354958221916586E+01 -0.4354613851879253E+01 -0.4354269526485472E+01 -0.4353925245794648E+01
 -0.4353581009865849E+01 -0.4353236818757806E+01 -0.4352892672528922E+01 -0.4352548571237269E+01 -0.4352204514940586E+01
 -0.4351860503696291E+01 -0.4351516537561471E+01 -0.4351172616592891E+01 -0.4350828740846991E+01 -0.4350484910379894E+01
 -0.4350141125247394E+01 -0.4349797385504979E+01 -0.4349453691207808E+01 -0.4349110042410731E+01 -0.4348766439168282E+01
 -0.4348422881534681E+01 -0.4348079369563840E+01 -0.4347735903309358E+01 -0.4347392482824527E+01 -0.4347049108162330E+01
 -0.4346705779375448E+01 -0.4346362496516252E+01 -0.4346019259636815E+01 -0.4345676068788906E+01 -0.4345332924023997E+01
 -0.4344989825393253E+01 -0.4344646772947553E+01 -0.4344303766737472E+01 -0.4343960806813290E+01 -0.4343617893224998E+01
 -0.4343275026022293E+01 -0.4342932205254578E+01 -0.4342589430970972E+01 -0.4342246703220303E+01 -0.4341904022051111E+01
 -0.4341561387511651E+01 -0.4341218799649894E+01 -0.4340876258513533E+01 -0.4340533764149969E+01 -0.4340191316606331E+01
 -0.4339848915929467E+01 -0.4339506562165944E+01 -0.4339164255362055E+01 -0.4338821995563817E+01 -0.4338479782816976E+01
 -0.4338137617166997E+01 -0.4337795498659081E+01 -0.4337453427338154E+01 -0.4337111403248876E+01 -0.4336769426435639E+01
 -0.4336427496942563E+01 -0.4336085614813510E+01 -0.4335743780092068E+01 -0.4335401992821573E+01 -0.4335060253045090E+01
 -0.4334718560805428E+01 -0.4334376916145131E+01 -0.4334035319106492E+01 -0.4333693769731542E+01 -0.4333352268062055E+01
 -0.4333010814139550E+01 -0.4332669408005297E+01 -0.4332328049700306E+01 -0.4331986739265342E+01 -0.4331645476740914E+01
 -0.4331304262167283E+01 -0.4330963095584465E+01 -0.4330621977032224E+01 -0.4330280906550081E+01 -0.4329939884177312E+01
 -0.4329598909952947E+01 -0.4329257983915776E+01 -0.4328917106104345E+01 -0.4328576276556958E+01 -0.4328235495311684E+01
 -0.4327894762406349E+01 -0.4327554077878546E+01 -0.4327213441765626E+01 -0.4326872854104711E+01 -0.4326532314932682E+01
 -0.4326191824286194E+01 -0.4325851382201662E+01 -0.4325510988715278E+01 -0.4325170643862997E+01 -0.4324830347680546E+01
 -0.4324490100203429E+01 -0.4324149901466918E+01 -0.4323809751506060E+01 -0.4323469650355677E+01 -0.4323129598050368E+01
 -0.4322789594624508E+01 -0.4322449640112249E+01 -0.4322109734547523E+01 -0.4321769877964043E+01 -0.4321430070395301E+01
 -0.4321090311874570E+01 -0.4320750602434908E+01 -0.4320410942109156E+01 -0.4320071330929939E+01 -0.4319731768929671E+01
 -0.4319392256140547E+01 -0.4319052792594554E+01 -0.4318713378323466E+01 -0.4318374013358843E+01 -0.4318034697732045E+01
 -0.4317695431474210E+01 -0.4317356214616280E+01 -0.4317017047188985E+01 -0.4316677929222847E+01 -0.4316338860748189E+01
 -0.4315999841795122E+01 -0.4315660872393560E+01 -0.4315321952573213E+01 -0.4314983082363589E+01 -0.4314644261793995E+01
 -0.4314305490893538E+01 -0.4313966769691129E+01 -0.4313628098215479E+01 -0.4313289476495100E+01 -0.4312950904558311E+01
 -0.4312612382433234E+01 -0.4312273910147799E+01 -0.4311935487729739E+01 -0.4311597115206597E+01 -0.4311258792605720E+01
 -0.4310920519954269E+01 -0.4310582297279212E+01 -0.4310244124607328E+01 -0.4309906001965206E+01 -0.4309567929379254E+01
 -0.4309229906875681E+01 -0.4308891934480520E+01 -0.4308554012219616E+01 -0.4308216140118628E+01 -0.4307878318203032E+01
 -0.4307540546498124E+01 -0.4307202825029012E+01 -0.4306865153820628E+01 -0.4306527532897721E+01 -0.4306189962284864E+01
 -0.4305852442006445E+01 -0.4305514972086676E+01 -0.4305177552549596E+01 -0.4304840183419063E+01 -0.4304502864718760E+01
 -0.4304165596472196E+01 -0.4303828378702705E+01 -0.4303491211433448E+01 -0.4303154094687413E+01 -0.4302817028487414E+01
 -0.4302480012856098E+01 -0.4302143047815941E+01 -0.4301806133389244E+01 -0.4301469269598145E+01 -0.4301132456464610E+01
 -0.4300795694010441E+01 -0.4300458982257267E+01 -0.4300122321226560E+01 -0.4299785710939620E+01 -0.4299449151417583E+01
 -0.4299112642681422E+01 -0.4298776184751950E+01 -0.4298439777649810E+01 -0.4298103421395493E+01 -0.4297767116009320E+01
 -0.4297430861511458E+01 -0.4297094657921909E+01 -0.4296758505260520E+01 -0.4296422403546981E+01 -0.4296086352800819E+01
 -0.4295750353041408E+01 -0.4295414404287966E+01 -0.4295078506559552E+01 -0.4294742659875073E+01 -0.4294406864253284E+01
 -0.4294071119712782E+01 -0.4293735426272012E+01 -0.4293399783949268E+01 -0.4293064192762694E+01 -0.4292728652730280E+01
 -0.4292393163869867E+01 -0.4292057726199148E+01 -0.4291722339735664E+01 -0.4291387004496810E+01 -0.4291051720499833E+01
 -0.4290716487761833E+01 -0.4290381306299765E+01 -0.4290046176130433E+01 -0.4289711097270503E+01 -0.4289376069736492E+01
 -0.4289041093544776E+01 -0.4288706168711584E+01 -0.4288371295253004E+01 -0.4288036473184987E+01 -0.4287701702523334E+01
 -0.4287366983283713E+01 -0.4287032315481644E+01 -0.4286697699132517E+01 -0.4286363134251577E+01 -0.4286028620853928E+01
 -0.4285694158954544E+01 -0.4285359748568257E+01 -0.4285025389709763E+01 -0.4284691082393623E+01 -0.4284356826634262E+01
 -0.4284022622445969E+01 -0.4283688469842903E+01 -0.4283354368839085E+01 -0.4283020319448403E+01 -0.4282686321684618E+01
 -0.4282352375561350E+01 -0.4282018481092098E+01 -0.4281684638290223E+01 -0.4281350847168958E+01 -0.4281017107741406E+01
 -0.4280683420020543E+01 -0.4280349784019212E+01 -0.4280016199750134E+01 -0.4279682667225899E+01 -0.4279349186458969E+01
 -0.4279015757461683E+01 -0.4278682380246252E+01 -0.4278349054824762E+01 -0.4278015781209176E+01 -0.4277682559411332E+01
 -0.4277349389442941E+01 -0.4277016271315598E+01 -0.4276683205040769E+01 -0.4276350190629802E+01 -0.4276017228093921E+01
 -0.4275684317444229E+01 -0.4275351458691714E+01 -0.4275018651847234E+01 -0.4274685896921537E+01 -0.4274353193925248E+01
 -0.4274020542868873E+01 -0.4273687943762802E+01 -0.4273355396617307E+01 -0.4273022901442544E+01 -0.4272690458248549E+01
 -0.4272358067045248E+01 -0.4272025727842445E+01 -0.4271693440649837E+01 -0.4271361205476999E+01 -0.4271029022333397E+01
 -0.4270696891228383E+01 -0.4270364812171191E+01 -0.4270032785170951E+01 -0.4269700810236677E+01 -0.4269368887377270E+01
 -0.4269037016601521E+01 -0.4268705197918113E+01 -0.4268373431335615E+01 -0.4268041716862490E+01 -0.4267710054507091E+01
 -0.4267378444277661E+01 -0.4267046886182335E+01 -0.4266715380229141E+01 -0.4266383926426004E+01 -0.4266052524780733E+01
 -0.4265721175301040E+01 -0.4265389877994525E+01 -0.4265058632868684E+01 -0.4264727439930913E+01 -0.4264396299188495E+01
 -0.4264065210648615E+01 -0.4263734174318354E+01 -0.4263403190204688E+01 -0.4263072258314490E+01 -0.4262741378654535E+01
 -0.4262410551231491E+01 -0.4262079776051925E+01 -0.4261749053122308E+01 -0.4261418382449006E+01 -0.4261087764038287E+01
 -0.4260757197896318E+01 -0.4260426684029167E+01 -0.4260096222442805E+01 -0.4259765813143106E+01 -0.4259435456135837E+01
 -0.4259105151426678E+01 -0.4258774899021208E+01 -0.4258444698924909E+01 -0.4258114551143166E+01 -0.4257784455681271E+01
 -0.4257454412544418E+01 -0.4257124421737705E+01 -0.4256794483266140E+01 -0.4256464597134634E+01 -0.4256134763348001E+01
 -0.4255804981910968E+01 -0.4255475252828164E+01 -0.4255145576104129E+01 -0.4254815951743307E+01 -0.4254486379750054E+01
 -0.4254156860128632E+01 -0.4253827392883212E+01 -0.4253497978017877E+01 -0.4253168615536617E+01 -0.4252839305443334E+01
 -0.4252510047741839E+01 -0.4252180842435855E+01 -0.4251851689529016E+01 -0.4251522589024868E+01 -0.4251193540926868E+01
 -0.4250864545238388E+01 -0.4250535601962708E+01 -0.4250206711103028E+01 -0.4249877872662455E+01 -0.4249549086644014E+01
 -0.4249220353050642E+01 -0.4248891671885193E+01 -0.4248563043150436E+01 -0.4248234466849053E+01 -0.4247905942983642E+01
 -0.4247577471556719E+01 -0.4247249052570717E+01 -0.4246920686027983E+01 -0.4246592371930785E+01 -0.4246264110281304E+01
 -0.4245935901081643E+01 -0.4245607744333820E+01 -0.4245279640039776E+01 -0.4244951588201366E+01 -0.4244623588820367E+01
 -0.4244295641898475E+01 -0.4243967747437309E+01 -0.4243639905438403E+01 -0.4243312115903215E+01 -0.4242984378833124E+01
 -0.4242656694229430E+01 -0.4242329062093352E+01 -0.4242001482426041E+01 -0.4241673955228554E+01 -0.4241346480501885E+01
 -0.4241019058246946E+01 -0.4240691688464571E+01 -0.4240364371155518E+01 -0.4240037106320474E+01 -0.4239709893960044E+01
 -0.4239382734074761E+01 -0.4239055626665080E+01 -0.4238728571731389E+01 -0.4238401569273991E+01 -0.4238074619293123E+01
 -0.4237747721788946E+01 -0.4237420876761545E+01 -0.4237094084210938E+01 -0.4236767344137063E+01 -0.4236440656539792E+01
 -0.4236114021418922E+01 -0.4235787438774178E+01 -0.4235460908605211E+01 -0.4235134430911607E+01 -0.4234808005692877E+01
 -0.4234481632948462E+01 -0.4234155312677734E+01 -0.4233829044879992E+01 -0.4233502829554470E+01 -0.4233176666700330E+01
 -0.4232850556316662E+01 -0.4232524498402494E+01 -0.4232198492956780E+01 -0.4231872539978407E+01 -0.4231546639466197E+01
 -0.4231220791418900E+01 -0.4230894995835204E+01 -0.4230569252713725E+01 -0.4230243562053013E+01 -0.4229917923851557E+01
 -0.4229592338107770E+01 -0.4229266804820012E+01 -0.4228941323986566E+01 -0.4228615895605656E+01 -0.4228290519675437E+01
 -0.4227965196194003E+01 -0.4227639925159385E+01 -0.4227314706569541E+01 -0.4226989540422376E+01 -0.4226664426715725E+01
 -0.4226339365447360E+01 -0.4226014356614993E+01 -0.4225689400216271E+01 -0.4225364496248779E+01 -0.4225039644710040E+01
 -0.4224714845597512E+01 -0.4224390098908597E+01 -0.4224065404640634E+01 -0.4223740762790897E+01 -0.4223416173356602E+01
 -0.4223091636334905E+01 -0.4222767151722902E+01 -0.4222442719517623E+01 -0.4222118339716046E+01 -0.4221794012315088E+01
 -0.4221469737311603E+01 -0.4221145514702386E+01 -0.4220821344484177E+01 -0.4220497226653658E+01 -0.4220173161207446E+01
 -0.4219849148142107E+01 -0.4219525187454144E+01 -0.4219201279140009E+01 -0.4218877423196090E+01 -0.4218553619618719E+01
 -0.4218229868404175E+01 -0.4217906169548680E+01 -0.4217582523048396E+01 -0.4217258928899430E+01 -0.4216935387097838E+01
 -0.4216611897639612E+01 -0.4216288460520697E+01 -0.4215965075736978E+01 -0.4215641743284286E+01 -0.4215318463158400E+01
 -0.4214995235355040E+01 -0.4214672059869876E+01 -0.4214348936698523E+01 -0.4214025865836541E+01 -0.4213702847279437E+01
 -0.4213379881022667E+01 -0.4213056967061631E+01 -0.4212734105391680E+01 -0.4212411296008108E+01 -0.4212088538906160E+01
 -0.4211765834081029E+01 -0.4211443181527853E+01 -0.4211120581241723E+01 -0.4210798033217674E+01 -0.4210475537450695E+01
 -0.4210153093935721E+01 -0.4209830702667635E+01 -0.4209508363641271E+01 -0.4209186076851417E+01 -0.4208863842292803E+01
 -0.4208541659960114E+01 -0.4208219529847986E+01 -0.4207897451951004E+01 -0.4207575426263705E+01 -0.4207253452780574E+01
 -0.4206931531496052E+01 -0.4206609662404530E+01 -0.4206287845500349E+01 -0.4205966080777801E+01 -0.4205644368231134E+01
 -0.4205322707854548E+01 -0.4205001099642191E+01 -0.4204679543588169E+01 -0.4204358039686537E+01 -0.4204036587931308E+01
 -0.4203715188316443E+01 -0.4203393840835860E+01 -0.4203072545483431E+01 -0.4202751302252979E+01 -0.4202430111138284E+01
 -0.4202108972133082E+01 -0.4201787885231058E+01 -0.4201466850425856E+01 -0.4201145867711076E+01 -0.4200824937080270E+01
 -0.4200504058526946E+01 -0.4200183232044571E+01 -0.4199862457626564E+01 -0.4199541735266303E+01 -0.4199221064957118E+01
 -0.4198900446692298E+01 -0.4198579880465092E+01 -0.4198259366268700E+01 -0.4197938904096282E+01 -0.4197618493940956E+01
 -0.4197298135795793E+01 -0.4196977829653828E+01 -0.4196657575508049E+01 -0.4196337373351404E+01 -0.4196017223176797E+01
 -0.4195697124977094E+01 -0.4195377078745116E+01 -0.4195057084473644E+01 -0.4194737142155419E+01 -0.4194417251783139E+01
 -0.4194097413349464E+01 -0.4193777626847009E+01 -0.4193457892268354E+01 -0.4193138209606035E+01 -0.4192818578852549E+01
 -0.4192499000000352E+01 -0.4192179473041865E+01 -0.4191859997969463E+01 -0.4191540574775487E+01 -0.4191221203452235E+01
 -0.4190901883991968E+01 -0.4190582616386909E+01 -0.4190263400629240E+01 -0.4189944236711109E+01 -0.4189625124624618E+01
 -0.4189306064361839E+01 -0.4188987055914802E+01 -0.4188668099275498E+01 -0.4188349194435885E+01 -0.4188030341387880E+01
 -0.4187711540123363E+01 -0.4187392790634179E+01 -0.4187074092912134E+01 -0.4186755446948998E+01 -0.4186436852736504E+01
 -0.4186118310266349E+01 -0.4185799819530197E+01 -0.4185481380519668E+01 -0.4185162993226354E+01 -0.4184844657641808E+01
 -0.4184526373757547E+01 -0.4184208141565051E+01 -0.4183889961055770E+01 -0.4183571832221115E+01 -0.4183253755052462E+01
 -0.4182935729541155E+01 -0.4182617755678498E+01 -0.4182299833455769E+01 -0.4181981962864201E+01 -0.4181664143895004E+01
 -0.4181346376539344E+01 -0.4181028660788361E+01 -0.4180710996633157E+01 -0.4180393384064801E+01 -0.4180075823074328E+01
 -0.4179758313652746E+01 -0.4179440855791021E+01 -0.4179123449480089E+01 -0.4178806094710855E+01 -0.4178488791474194E+01
 -0.4178171539760942E+01 -0.4177854339561907E+01 -0.4177537190867861E+01 -0.4177220093669550E+01 -0.4176903047957684E+01
 -0.4176586053722942E+01 -0.4176269110955972E+01 -0.4175952219647390E+01 -0.4175635379787780E+01 -0.4175318591367695E+01
 -0.4175001854377658E+01 -0.4174685168808165E+01 -0.4174368534649672E+01 -0.4174051951892612E+01 -0.4173735420527385E+01
 -0.4173418940544361E+01 -0.4173102511933879E+01 -0.4172786134686250E+01 -0.4172469808791752E+01 -0.4172153534240638E+01
 -0.4171837311023126E+01 -0.4171521139129410E+01 -0.4171205018549649E+01 -0.4170888949273977E+01 -0.4170572931292498E+01
 -0.4170256964595286E+01 -0.4169941049172390E+01 -0.4169625185013822E+01 -0.4169309372109576E+01 -0.4168993610449611E+01
 -0.4168677900023860E+01 -0.4168362240822224E+01 -0.4168046632834583E+01 -0.4167731076050785E+01 -0.4167415570460649E+01
 -0.4167100116053970E+01 -0.4166784712820514E+01 -0.4166469360750019E+01 -0.4166154059832195E+01 -0.4165838810056727E+01
 -0.4165523611413276E+01 -0.4165208463891467E+01 -0.4164893367480908E+01 -0.4164578322171175E+01 -0.4164263327951820E+01
 -0.4163948384812367E+01 -0.4163633492742314E+01 -0.4163318651731133E+01 -0.4163003861768273E+01 -0.4162689122843154E+01
 -0.4162374434945171E+01 -0.4162059798063694E+01 -0.4161745212188065E+01 -0.4161430677307608E+01 -0.4161116193411612E+01
 -0.4160801760489348E+01 -0.4160487378530060E+01 -0.4160173047522965E+01 -0.4159858767457261E+01 -0.4159544538322114E+01
 -0.4159230360106672E+01 -0.4158916232800054E+01 -0.4158602156391360E+01 -0.4158288130869657E+01 -0.4157974156223999E+01
 -0.4157660232443408E+01 -0.4157346359516888E+01 -0.4157032537433413E+01 -0.4156718766181939E+01 -0.4156405045751395E+01
 -0.4156091376130690E+01 -0.4155777757308707E+01 -0.4155464189274308E+01 -0.4155150672016330E+01 -0.4154837205523587E+01
 -0.4154523789784874E+01 -0.4154210424788960E+01 -0.4153897110524593E+01 -0.4153583846980496E+01 -0.4153270634145372E+01
 -0.4152957472007904E+01 -0.4152644360556748E+01 -0.4152331299780539E+01 -0.4152018289667899E+01 -0.4151705330207411E+01
 -0.4151392421387653E+01 -0.4151079563197173E+01 -0.4150766755624497E+01 -0.4150453998658135E+01 -0.4150141292286571E+01
 -0.4149828636498273E+01 -0.4149516031281681E+01 -0.4149203476625217E+01 -0.4148890972517288E+01 -0.4148578518946270E+01
 -0.4148266115900526E+01 -0.4147953763368397E+01 -0.4147641461338202E+01 -0.4147329209798242E+01 -0.4147017008736794E+01
 -0.4146704858142120E+01 -0.4146392758002457E+01 -0.4146080708306026E+01 -0.4145768709041026E+01 -0.4145456760195638E+01
 -0.4145144861758022E+01 -0.4144833013716319E+01 -0.4144521216058651E+01 -0.4144209468773121E+01 -0.4143897771847810E+01
 -0.4143586125270785E+01 -0.4143274529030090E+01 -0.4142962983113751E+01 -0.4142651487509776E+01 -0.4142340042206154E+01
 -0.4142028647190855E+01 -0.4141717302451831E+01 -0.4141406007977015E+01 -0.4141094763754322E+01 -0.4140783569771650E+01
 -0.4140472426016876E+01 -0.4140161332477862E+01 -0.4139850289142450E+01 -0.4139539295998466E+01 -0.4139228353033715E+01
 -0.4138917460235988E+01 -0.4138606617593059E+01 -0.4138295825092678E+01 -0.4137985082722586E+01 -0.4137674390470500E+01
 -0.4137363748324126E+01 -0.4137053156271146E+01 -0.4136742614299230E+01 -0.4136432122396030E+01 -0.4136121680549179E+01
 -0.4135811288746298E+01 -0.4135500946974987E+01 -0.4135190655222829E+01 -0.4134880413477393E+01 -0.4134570221726232E+01
 -0.4134260079956879E+01 -0.4133949988156857E+01 -0.4133639946313667E+01 -0.4133329954414795E+01 -0.4133020012447715E+01
 -0.4132710120399879E+01 -0.4132400278258729E+01 -0.4132090486011688E+01 -0.4131780743646165E+01 -0.4131471051149550E+01
 -0.4131161408509221E+01 -0.4130851815712541E+01 -0.4130542272746854E+01 -0.4130232779599494E+01 -0.4129923336257773E+01
 -0.4129613942708998E+01 -0.4129304598940450E+01 -0.4128995304939403E+01 -0.4128686060693112E+01 -0.4128376866188818E+01
 -0.4128067721413748E+01 -0.4127758626355115E+01 -0.4127449581000119E+01 -0.4127140585335939E+01 -0.4126831639349748E+01
 -0.4126522743028699E+01 -0.4126213896359933E+01 -0.4125905099330577E+01 -0.4125596351927744E+01 -0.4125287654138532E+01
 -0.4124979005950025E+01 -0.4124670407349297E+01 -0.4124361858323402E+01 -0.4124053358859386E+01 -0.4123744908944278E+01
 -0.4123436508565095E+01 -0.4123128157708842E+01 -0.4122819856362506E+01 -0.4122511604513065E+01 -0.4122203402147483E+01
 -0.4121895249252711E+01 -0.4121587145815686E+01 -0.4121279091823331E+01 -0.4120971087262559E+01 -0.4120663132120268E+01
 -0.4120355226383346E+01 -0.4120047370038662E+01 -0.4119739563073082E+01 -0.4119431805473453E+01 -0.4119124097226610E+01
 -0.4118816438319376E+01 -0.4118508828738563E+01 -0.4118201268470969E+01 -0.4117893757503383E+01 -0.4117586295822577E+01
 -0.4117278883415316E+01 -0.4116971520268350E+01 -0.4116664206368418E+01 -0.4116356941702246E+01 -0.4116049726256550E+01
 -0.4115742560018035E+01 -0.4115435442973391E+01 -0.4115128375109301E+01 -0.4114821356412431E+01 -0.4114514386869443E+01
 -0.4114207466466978E+01 -0.4113900595191677E+01 -0.4113593773030158E+01 -0.4113286999969039E+01 -0.4112980275994917E+01
 -0.4112673601094387E+01 -0.4112366975254027E+01 -0.4112060398460405E+01 -0.4111753870700081E+01 -0.4111447391959602E+01
 -0.4111140962225504E+01 -0.4110834581484314E+01 -0.4110528249722547E+01 -0.4110221966926709E+01 -0.4109915733083294E+01
 -0.4109609548178787E+01 -0.4109303412199663E+01 -0.4108997325132382E+01 -0.4108691286963404E+01 -0.4108385297679168E+01
 -0.4108079357266108E+01 -0.4107773465710650E+01 -0.4107467622999207E+01 -0.4107161829118183E+01 -0.4106856084053971E+01
 -0.4106550387792955E+01 -0.4106244740321513E+01 -0.4105939141626009E+01 -0.4105633591692797E+01 -0.4105328090508226E+01
 -0.4105022638058631E+01 -0.4104717234330339E+01 -0.4104411879309668E+01 -0.4104106572982929E+01 -0.4103801315336422E+01
 -0.4103496106356435E+01 -0.4103190946029252E+01 -0.4102885834341143E+01 -0.4102580771278376E+01 -0.4102275756827201E+01
 -0.4101970790973867E+01 -0.4101665873704611E+01 -0.4101361005005660E+01 -0.4101056184863236E+01 -0.4100751413263548E+01
 -0.4100446690192800E+01 -0.4100142015637187E+01 -0.4099837389582894E+01 -0.4099532812016099E+01 -0.4099228282922971E+01
 -0.4098923802289669E+01 -0.4098619370102350E+01 -0.4098314986347154E+01 -0.4098010651010220E+01 -0.4097706364077678E+01
 -0.4097402125535646E+01 -0.4097097935370235E+01 -0.4096793793567555E+01 -0.4096489700113699E+01 -0.4096185654994758E+01
 -0.4095881658196811E+01 -0.4095577709705935E+01 -0.4095273809508194E+01 -0.4094969957589647E+01 -0.4094666153936346E+01
 -0.4094362398534334E+01 -0.4094058691369647E+01 -0.4093755032428318E+01 -0.4093451421696362E+01 -0.4093147859159799E+01
 -0.4092844344804633E+01 -0.4092540878616867E+01 -0.4092237460582492E+01 -0.4091934090687495E+01 -0.4091630768917854E+01
 -0.4091327495259544E+01 -0.4091024269698529E+01 -0.4090721092220766E+01 -0.4090417962812207E+01 -0.4090114881458800E+01
 -0.4089811848146481E+01 -0.4089508862861182E+01 -0.4089205925588829E+01 -0.4088903036315340E+01 -0.4088600195026626E+01
  0.2266235482245833E+03  0.2266235482245833E+03  0.2266235482245833E+03  0.2266235482245833E+03  0.2266235482245833E+03
  0.2266235482245833E+03  0.2266235482245833E+03  0.2266235482245833E+03  0.2266235482245833E+03  0.2266235482245833E+03
  0.2266235482245833E+03  0.2266235482245833E+03  0.2266235482245833E+03  0.2266235482245833E+03  0.2266235482245833E+03
  0.2266235482245833E+03  0.2266235482245833E+03  0.2266235482245833E+03  0.2266235482245833E+03  0.2266235482245833E+03
  0.2266235482245833E+03  0.2266235482245833E+03  0.2266235482245833E+03  0.2266235482245833E+03  0.2266235482245833E+03
  0.2266235482245833E+03  0.2266235482245833E+03  0.2266235482245833E+03  0.2266235482245833E+03  0.2266235482245833E+03
  0.2266235482245833E+03  0.2266235482245833E+03  0.2266235482245833E+03  0.2266235482245833E+03  0.2266235482245833E+03
  0.2266235482245833E+03  0.2266235482245833E+03  0.2266235482245833E+03  0.2266235482245833E+03  0.2266235482245833E+03
  0.2266235482245833E+03  0.2266235482245833E+03  0.2266235482245833E+03  0.2266235482245833E+03  0.2266235482245833E+03
  0.2266235482245833E+03  0.2266235482245833E+03  0.2266235482245833E+03  0.2266235482245833E+03  0.2266235482245833E+03
  0.2266235482245833E+03  0.2266235482245833E+03  0.2266235482245833E+03  0.2266235482245833E+03  0.2266235482245833E+03
  0.2266235482245833E+03  0.2266235482245833E+03  0.2266235482245833E+03  0.2266235482245833E+03  0.2266235482245833E+03
  0.2266235482245833E+03  0.2266235482245833E+03  0.2266235482245833E+03  0.2266235482245833E+03  0.2266235482245833E+03
  0.2266235482245833E+03  0.2266235482245833E+03  0.2266235482245833E+03  0.2266235482245833E+03  0.2266235482245833E+03
  0.2266235482245833E+03  0.2266235482245833E+03  0.2266235482245833E+03  0.2266235482245833E+03  0.2266235482245833E+03
  0.2266235482245833E+03  0.2266235482245833E+03  0.2266235482245833E+03  0.2266235482245833E+03  0.2266235482245833E+03
  0.2266235482245833E+03  0.2266235482245833E+03  0.2266235482245833E+03  0.2266235482245833E+03  0.2266235482245833E+03
  0.2266235482245833E+03  0.2266235482245833E+03  0.2266235482245833E+03  0.2266235482245833E+03  0.2266235482245833E+03
  0.2266235482245833E+03  0.2266235482245833E+03  0.2266235482245833E+03  0.2266235482245833E+03  0.2266235482245833E+03
  0.2266235482245833E+03  0.2266235482245833E+03  0.2266235482245833E+03  0.2266235482245833E+03  0.2266235482245833E+03
  0.2266235482245833E+03  0.2266235482245833E+03  0.2266235482245833E+03  0.2266235482245833E+03  0.2266235482245833E+03
  0.2266235482245833E+03  0.2266235482245833E+03  0.2266235482245833E+03  0.2266235482245833E+03  0.2266235482245833E+03
  0.2266235482245833E+03  0.2266235482245833E+03  0.2266235482245833E+03  0.2266235482245833E+03  0.2266235482245833E+03
  0.2266235482245833E+03  0.2266235482245833E+03  0.2266235482245833E+03  0.2266235482245833E+03  0.2266235482245833E+03
  0.2266235482245833E+03  0.2266235482245833E+03  0.2266235482245833E+03  0.2266235482245833E+03  0.2266235482245833E+03
  0.2266235482245833E+03  0.2266235482245833E+03  0.2266235482245833E+03  0.2266235482245833E+03  0.2266235482245833E+03
  0.2266235482245833E+03  0.2266235482245833E+03  0.2266235482245833E+03  0.2266235482245833E+03  0.2266235482245833E+03
  0.2266235482245833E+03  0.2266235482245833E+03  0.2266235482245833E+03  0.2266235482245833E+03  0.2266235482245833E+03
  0.2262368452381916E+03  0.2250093008932036E+03  0.2237839619794668E+03  0.2225609648090838E+03  0.2213404412520634E+03
  0.2201225188249944E+03  0.2189073207794054E+03  0.2176949661897292E+03  0.2164855700407910E+03  0.2152792433147492E+03
  0.2140760930774200E+03  0.2128762225639209E+03  0.2116797312635765E+03  0.2104867150040288E+03  0.2092972660345051E+03
  0.2081114731081944E+03  0.2069294215636928E+03  0.2057511934054739E+03  0.2045768673833573E+03  0.2034065190709331E+03
  0.2022402209429242E+03  0.2010780424514530E+03  0.1999200501011931E+03  0.1987663075233873E+03  0.1976168755487109E+03
  0.1964718122789702E+03  0.1953311731576201E+03  0.1941950110390922E+03  0.1930633762569263E+03  0.1919363166906968E+03
  0.1908138778317317E+03  0.1896961028476221E+03  0.1885830326455199E+03  0.1874747059342253E+03  0.1863711592850667E+03
  0.1852724271915755E+03  0.1841785421279633E+03  0.1830895346064031E+03  0.1820054332331258E+03  0.1809262647633394E+03
  0.1798520541549761E+03  0.1787828246212852E+03  0.1777185976822734E+03  0.1766593932150104E+03  0.1756052295028112E+03
  0.1745561232833041E+03  0.1735120897954022E+03  0.1724731428251910E+03  0.1714392947507439E+03  0.1704105565858846E+03
  0.1693869380229074E+03  0.1683684474742736E+03  0.1673550921132993E+03  0.1663468779138473E+03  0.1653438096890457E+03
  0.1643458911290423E+03  0.1633531248378149E+03  0.1623655123690563E+03  0.1613830542611437E+03  0.1604057500712163E+03
  0.1594335984083740E+03  0.1584665969660130E+03  0.1575047425533185E+03  0.1565480311259277E+03  0.1555964578157812E+03
  0.1546500169601796E+03  0.1537087021300592E+03  0.1527725061575067E+03  0.1518414211625262E+03  0.1509154385790744E+03
  0.1499945491803835E+03  0.1490787431035810E+03  0.1481680098736286E+03  0.1472623384265911E+03  0.1463617171322517E+03
  0.1454661338160893E+03  0.1445755757806317E+03  0.1436900298261990E+03  0.1428094822710537E+03  0.1419339189709667E+03
  0.1410633253382199E+03  0.1401976863600529E+03  0.1393369866165708E+03  0.1384812102981248E+03  0.1376303412221799E+03
  0.1367843628496804E+03  0.1359432583009283E+03  0.1351070103709841E+03  0.1342756015446051E+03  0.1334490140107298E+03
  0.1326272296765227E+03  0.1318102301809900E+03  0.1309979969081760E+03  0.1301905109999539E+03  0.1293877533684185E+03
  0.1285897047078934E+03  0.1277963455065634E+03  0.1270076560577401E+03  0.1262236164707712E+03  0.1254442066816043E+03
  0.1246694064630136E+03  0.1238991954344984E+03  0.1231335530718633E+03  0.1223724587164876E+03  0.1216158915842936E+03
  0.1208638307744222E+03  0.1201162552776220E+03  0.1193731439843639E+03  0.1186344756926831E+03  0.1179002291157627E+03
  0.1171703828892606E+03  0.1164449155783908E+03  0.1157238056847641E+03  0.1150070316529955E+03  0.1142945718770858E+03
  0.1135864047065829E+03  0.1128825084525294E+03  0.1121828613932031E+03  0.1114874417796568E+03  0.1107962278410612E+03
  0.1101091977898599E+03  0.1094263298267393E+03  0.1087476021454195E+03  0.1080729929372738E+03  0.1074024803957776E+03
  0.1067360427207959E+03  0.1060736581227120E+03  0.1054153048264022E+03  0.1047609610750633E+03  0.1041106051338934E+03
  0.1034642152936352E+03  0.1028217698739811E+03  0.1021832472268495E+03  0.1015486257395312E+03  0.1009178838377136E+03
  0.1002909999883850E+03  0.9966795270262173E+02  0.9904872053826494E+02  0.9843328210248620E+02  0.9782161605424929E+02
  0.9721370110666869E+02  0.9660951602926967E+02  0.9600903965015215E+02  0.9541225085806181E+02  0.9481912860437178E+02
  0.9422965190497655E+02  0.9364379984210203E+02  0.9306155156603437E+02  0.9248288629676884E+02  0.9190778332558412E+02
  0.9133622201654076E+02  0.9076818180790981E+02  0.9020364221353084E+02  0.8964258282410466E+02  0.8908498330841965E+02
  0.8853082341451730E+02  0.8798008297079588E+02  0.8743274188705632E+02  0.8688878015549170E+02  0.8634817785162123E+02
  0.8581091513517292E+02  0.8527697225091390E+02  0.8474632952943216E+02  0.8421896738787055E+02  0.8369486633061452E+02
  0.8317400694993610E+02  0.8265636992659444E+02  0.8214193603039520E+02  0.8163068612070984E+02  0.8112260114695661E+02
  0.8061766214904394E+02  0.8011585025777836E+02  0.7961714669523766E+02  0.7912153277511021E+02  0.7862898990300266E+02
  0.7813949957671646E+02  0.7765304338649386E+02  0.7716960301523611E+02  0.7668916023869278E+02  0.7621169692562486E+02
  0.7573719503794209E+02  0.7526563663081508E+02  0.7479700385276391E+02  0.7433127894572333E+02  0.7386844424508594E+02
  0.7340848217972419E+02  0.7295137527199164E+02  0.7249710613770439E+02  0.7204565748610403E+02  0.7159701211980185E+02
  0.7115115293470564E+02  0.7070806291992992E+02  0.7026772515768948E+02  0.6983012282317827E+02  0.6939523918443223E+02
  0.6896305760217886E+02  0.6853356152967264E+02  0.6810673451251708E+02  0.6768256018847478E+02  0.6726102228726495E+02
  0.6684210463034933E+02  0.6642579113070761E+02  0.6601206579260160E+02  0.6560091271132976E+02  0.6519231607297175E+02
  0.6478626015412409E+02  0.6438272932162648E+02  0.6398170803228041E+02  0.6358318083255887E+02  0.6318713235830934E+02
  0.6279354733444890E+02  0.6240241057465244E+02  0.6201370698103454E+02  0.6162742154382467E+02  0.6124353934103729E+02
  0.6086204553813498E+02  0.6048292538768764E+02  0.6010616422902552E+02  0.5973174748788792E+02  0.5935966067606766E+02
  0.5898988939105072E+02  0.5862241931565217E+02  0.5825723621764834E+02  0.5789432594940506E+02  0.5753367444750337E+02
  0.5717526773236126E+02  0.5681909190785300E+02  0.5646513316092565E+02  0.5611337776121279E+02  0.5576381206064654E+02
  0.5541642249306681E+02  0.5507119557382880E+02  0.5472811789940883E+02  0.5438717614700818E+02  0.5404835707415560E+02
  0.5371164751830883E+02  0.5337703439645402E+02  0.5304450470470512E+02  0.5271404551790128E+02  0.5238564398920443E+02
  0.5205928734969533E+02  0.5173496290796961E+02  0.5141265804973303E+02  0.5109236023739646E+02  0.5077405700967056E+02
  0.5045773598116051E+02  0.5014338484196043E+02  0.4983099135724785E+02  0.4952054336687853E+02  0.4921202878498116E+02
  0.4890543559955269E+02  0.4860075187205355E+02  0.4829796573700401E+02  0.4799706540158031E+02  0.4769803914521179E+02
  0.4740087531917866E+02  0.4710556234621030E+02  0.4681208872008437E+02  0.4652044300522706E+02  0.4623061383631354E+02
  0.4594258991787013E+02  0.4565636002387691E+02  0.4537191299737154E+02  0.4508923775005422E+02  0.4480832326189368E+02
  0.4452915858073425E+02  0.4425173282190449E+02  0.4397603516782657E+02  0.4370205486762734E+02  0.4342978123675051E+02
  0.4315920365657014E+02  0.4289031157400573E+02  0.4262309450113834E+02  0.4235754201482865E+02  0.4209364375633603E+02
  0.4183138943093928E+02  0.4157076880755892E+02  0.4131177171838090E+02  0.4105438805848194E+02  0.4079860778545655E+02
  0.4054442091904527E+02  0.4029181754076505E+02  0.4004078779354061E+02  0.3979132188133821E+02  0.3954341006880038E+02
  0.3929704268088274E+02  0.3905221010249234E+02  0.3880890277812756E+02  0.3856711121152018E+02  0.3832682596527863E+02
  0.3808803766053323E+02  0.3785073697658324E+02  0.3761491465054525E+02  0.3738056147700391E+02  0.3714766830766391E+02
  0.3691622605100395E+02  0.3668622567193241E+02  0.3645765819144487E+02  0.3623051468628313E+02  0.3600478628859637E+02
  0.3578046418560400E+02  0.3555753961925990E+02  0.3533600388591909E+02  0.3511584833600550E+02  0.3489706437368211E+02
  0.3467964345652245E+02  0.3446357709518414E+02  0.3424885685308411E+02  0.3403547434607542E+02  0.3382342124212631E+02
  0.3361268926100053E+02  0.3340327017393983E+02  0.3319515580334790E+02  0.3298833802247634E+02  0.3278280875511224E+02
  0.3257855997526762E+02  0.3237558370687047E+02  0.3217387202345775E+02  0.3197341704787003E+02  0.3177421095194785E+02
  0.3157624595622988E+02  0.3137951432965276E+02  0.3118400838925275E+02  0.3098972049986902E+02  0.3079664307384875E+02
  0.3060476857075386E+02  0.3041408949706947E+02  0.3022459840591414E+02  0.3003628789675163E+02  0.2984915061510466E+02
  0.2966317925226997E+02  0.2947836654503533E+02  0.2929470527539819E+02  0.2911218827028589E+02  0.2893080840127757E+02
  0.2875055858432784E+02  0.2857143177949188E+02  0.2839342099065242E+02  0.2821651926524819E+02  0.2804071969400399E+02
  0.2786601541066253E+02  0.2769239959171762E+02  0.2751986545614928E+02  0.2734840626516017E+02  0.2717801532191374E+02
  0.2700868597127396E+02  0.2684041159954656E+02  0.2667318563422188E+02  0.2650700154371927E+02  0.2634185283713308E+02
  0.2617773306397999E+02  0.2601463581394822E+02  0.2585255471664797E+02  0.2569148344136345E+02  0.2553141569680654E+02
  0.2537234523087180E+02  0.2521426583039299E+02  0.2505717132090126E+02  0.2490105556638449E+02  0.2474591246904844E+02
  0.2459173596907914E+02  0.2443852004440680E+02  0.2428625871047120E+02  0.2413494601998845E+02  0.2398457606271918E+02
  0.2383514296523834E+02  0.2368664089070608E+02  0.2353906403864032E+02  0.2339240664469060E+02  0.2324666298041333E+02
  0.2310182735304844E+02  0.2295789410529741E+02  0.2281485761510257E+02  0.2267271229542797E+02  0.2253145259404140E+02
  0.2239107299329780E+02  0.2225156800992415E+02  0.2211293219480540E+02  0.2197516013277206E+02  0.2183824644238886E+02
  0.2170218577574475E+02  0.2156697281824432E+02  0.2143260228840040E+02  0.2129906893762794E+02  0.2116636755003926E+02
  0.2103449294224041E+02  0.2090343996312900E+02  0.2077320349369308E+02  0.2064377844681135E+02  0.2051515976705470E+02
  0.2038734243048875E+02  0.2026032144447790E+02  0.2013409184749034E+02  0.2000864870890439E+02  0.1988398712881608E+02
  0.1976010223784782E+02  0.1963698919695833E+02  0.1951464319725374E+02  0.1939305945979979E+02  0.1927223323543533E+02
  0.1915215980458687E+02  0.1903283447708425E+02  0.1891425259197766E+02  0.1879640951735553E+02  0.1867930065016371E+02
  0.1856292141602579E+02  0.1844726726906438E+02  0.1833233369172375E+02  0.1821811619459327E+02  0.1810461031623223E+02
  0.1799181162299557E+02  0.1787971570886074E+02  0.1776831819525567E+02  0.1765761473088778E+02  0.1754760099157402E+02
  0.1743827268007206E+02  0.1732962552591245E+02  0.1722165528523181E+02  0.1711435774060716E+02  0.1700772870089120E+02
  0.1690176400104854E+02  0.1679645950199321E+02  0.1669181109042685E+02  0.1658781467867814E+02  0.1648446620454317E+02
  0.1638176163112674E+02  0.1627969694668475E+02  0.1617826816446748E+02  0.1607747132256388E+02  0.1597730248374688E+02
  0.1587775773531954E+02  0.1577883318896232E+02  0.1568052498058114E+02  0.1558282927015652E+02  0.1548574224159354E+02
  0.1538926010257282E+02  0.1529337908440243E+02  0.1519809544187064E+02  0.1510340545309968E+02  0.1500930541940036E+02
  0.1491579166512756E+02  0.1482286053753676E+02  0.1473050840664127E+02  0.1463873166507053E+02  0.1454752672792915E+02
  0.1445689003265691E+02  0.1436681803888961E+02  0.1427730722832079E+02  0.1418835410456430E+02  0.1409995519301775E+02
  0.1401210704072677E+02  0.1392480621625014E+02  0.1383804930952578E+02  0.1375183293173755E+02  0.1366615371518287E+02
  0.1358100831314120E+02  0.1349639339974327E+02  0.1341230566984123E+02  0.1332874183887953E+02  0.1324569864276661E+02
  0.1316317283774742E+02  0.1308116120027670E+02  0.1299966052689308E+02  0.1291866763409399E+02  0.1283817935821124E+02
  0.1275819255528748E+02  0.1267870410095342E+02  0.1259971089030574E+02  0.1252120983778585E+02  0.1244319787705936E+02
  0.1236567196089631E+02  0.1228862906105210E+02  0.1221206616814928E+02  0.1213598029155993E+02  0.1206036845928891E+02
  0.1198522771785773E+02  0.1191055513218915E+02  0.1183634778549266E+02  0.1176260277915038E+02  0.1168931723260397E+02
  0.1161648828324208E+02  0.1154411308628849E+02  0.1147218881469102E+02  0.1140071265901113E+02  0.1132968182731414E+02
  0.1125909354506018E+02  0.1118894505499587E+02  0.1111923361704650E+02  0.1104995650820915E+02  0.1098111102244620E+02
  0.1091269447057970E+02  0.1084470418018632E+02  0.1077713749549291E+02  0.1070999177727286E+02  0.1064326440274293E+02
  0.1057695276546080E+02  0.1051105427522334E+02  0.1044556635796533E+02  0.1038048645565899E+02  0.1031581202621403E+02
  0.1025154054337837E+02  0.1018766949663943E+02  0.1012419639112609E+02  0.1006111874751126E+02  0.9998434101914997E+01
  0.9936140005808264E+01  0.9874234025917335E+01  0.9812713744128661E+01  0.9751576757394520E+01  0.9690820677639081E+01
  0.9630443131665151E+01  0.9570441761061474E+01  0.9510814222110572E+01  0.9451558185697262E+01  0.9392671337217632E+01
  0.9334151376488649E+01  0.9275996017658299E+01  0.9218202989116316E+01  0.9160770033405417E+01  0.9103694907133175E+01
  0.9046975380884339E+01  0.8990609239133791E+01  0.8934594280159992E+01  0.8878928315958934E+01  0.8823609172158763E+01
  0.8768634687934780E+01  0.8714002715925055E+01  0.8659711122146572E+01  0.8605757785911802E+01  0.8552140599745956E+01
  0.8498857469304617E+01  0.8445906313291937E+01  0.8393285063379345E+01  0.8340991664124751E+01  0.8289024072892252E+01
  0.8237380259772369E+01  0.8186058207502736E+01  0.8135055911389310E+01  0.8084371379228054E+01  0.8034002631227137E+01
  0.7983947699929595E+01  0.7934204630136476E+01  0.7884771478830477E+01  0.7835646315100028E+01  0.7786827220063895E+01
  0.7738312286796201E+01  0.7690099620251960E+01  0.7642187337193054E+01  0.7594573566114642E+01  0.7547256447172095E+01
  0.7500234132108336E+01  0.7453504784181625E+01  0.7407066578093843E+01  0.7360917699919185E+01  0.7315056347033287E+01
  0.7269480728042843E+01  0.7224189062715613E+01  0.7179179581910886E+01  0.7134450527510387E+01  0.7090000152349583E+01
  0.7045826720149460E+01  0.7001928505448691E+01  0.6958303793536230E+01  0.6914950880384350E+01  0.6871868072582061E+01
  0.6829053687268991E+01  0.6786506052069625E+01  0.6744223505028001E+01  0.6702204394542775E+01  0.6660447079302712E+01
  0.6618949928222588E+01  0.6577711320379469E+01  0.6536729644949386E+01  0.6496003301144436E+01  0.6455530698150226E+01
  0.6415310255063759E+01  0.6375340400831672E+01  0.6335619574188871E+01  0.6296146223597550E+01  0.6256918807186556E+01
  0.6217935792691216E+01  0.6179195657393447E+01  0.6140696888062281E+01  0.6102437980894774E+01  0.6064417441457231E+01
  0.6026633784626878E+01  0.5989085534533818E+01  0.5951771224503391E+01  0.5914689396998888E+01  0.5877838603564625E+01
  0.5841217404769324E+01  0.5804824370149949E+01  0.5768658078155791E+01  0.5732717116092942E+01  0.5697000080069137E+01
  0.5661505574938879E+01  0.5626232214248981E+01  0.5591178620184391E+01  0.5556343423514372E+01  0.5521725263539026E+01
  0.5487322788036137E+01  0.5453134653208347E+01  0.5419159523630686E+01  0.5385396072198390E+01  0.5351842980075074E+01
  0.5318498936641202E+01  0.5285362639442907E+01  0.5252432794141113E+01  0.5219708114460976E+01  0.5187187322141639E+01
  0.5154869146886298E+01  0.5122752326312597E+01  0.5090835605903294E+01  0.5059117738957283E+01  0.5027597486540892E+01
  0.4996273617439466E+01  0.4965144908109305E+01  0.4934210142629855E+01  0.4903468112656208E+01  0.4872917617371925E+01
  0.4842557463442098E+01  0.4812386464966769E+01  0.4782403443434588E+01  0.4752607227676790E+01  0.4722996653821430E+01
  0.4693570565247949E+01  0.4664327812541966E+01  0.4635267253450405E+01  0.4606387752836865E+01  0.4577688182637273E+01
  0.4549167421815841E+01  0.4520824356321258E+01  0.4492657879043185E+01  0.4464666889769010E+01  0.4436850295140866E+01
  0.4409207008612926E+01  0.4381735950408959E+01  0.4354436047480164E+01  0.4327306233463241E+01  0.4300345448638748E+01
  0.4273552639889708E+01  0.4246926760660450E+01  0.4220466770915765E+01  0.4194171637100262E+01  0.4168040332097992E+01
  0.4142071835192345E+01  0.4116265132026150E+01  0.4090619214562088E+01  0.4065133081043297E+01  0.4039805735954245E+01
  0.4014636189981847E+01  0.3989623459976813E+01  0.3964766568915258E+01  0.3940064545860533E+01  0.3915516425925295E+01
  0.3891121250233823E+01  0.3866878065884565E+01  0.3842785925912898E+01  0.3818843889254168E+01  0.3795051020706913E+01
  0.3771406390896334E+01  0.3747909076238001E+01  0.3724558158901756E+01  0.3701352726775893E+01  0.3678291873431505E+01
  0.3655374698087088E+01  0.3632600305573356E+01  0.3609967806298268E+01  0.3587476316212285E+01  0.3565124956773839E+01
  0.3542912854915016E+01  0.3520839143007450E+01  0.3498902958828431E+01  0.3477103445527230E+01  0.3455439751591630E+01
  0.3433911030814663E+01  0.3412516442261557E+01  0.3391255150236883E+01  0.3370126324251922E+01  0.3349129138992215E+01
  0.3328262774285333E+01  0.3307526415068839E+01  0.3286919251358443E+01  0.3266440478216373E+01  0.3246089295719933E+01
  0.3225864908930244E+01  0.3205766527861212E+01  0.3185793367448654E+01  0.3165944647519642E+01  0.3146219592762027E+01
  0.3126617432694154E+01  0.3107137401634759E+01  0.3087778738673078E+01  0.3068540687639102E+01  0.3049422497074062E+01
  0.3030423420201064E+01  0.3011542714895917E+01  0.2992779643658158E+01  0.2974133473582228E+01  0.2955603476328857E+01
  0.2937188928096607E+01  0.2918889109593605E+01  0.2900703306009439E+01  0.2882630806987241E+01  0.2864670906595945E+01
  0.2846822903302703E+01  0.2829086099945489E+01  0.2811459803705870E+01  0.2793943326081923E+01  0.2776535982861373E+01
  0.2759237094094844E+01  0.2742045984069309E+01  0.2724961981281696E+01  0.2707984418412645E+01  0.2691112632300463E+01
  0.2674345963915208E+01  0.2657683758332947E+01  0.2641125364710177E+01  0.2624670136258394E+01  0.2608317430218845E+01
  0.2592066607837407E+01  0.2575917034339640E+01  0.2559868078906001E+01  0.2543919114647182E+01  0.2528069518579647E+01
  0.2512318671601287E+01  0.2496665958467235E+01  0.2481110767765836E+01  0.2465652491894772E+01  0.2450290527037307E+01
  0.2435024273138730E+01  0.2419853133882896E+01  0.2404776516668941E+01  0.2389793832588131E+01  0.2374904496400861E+01
  0.2360107926513793E+01  0.2345403544957142E+01  0.2330790777362096E+01  0.2316269052938384E+01  0.2301837804451975E+01
  0.2287496468202924E+01  0.2273244484003356E+01  0.2259081295155584E+01  0.2245006348430363E+01  0.2231019094045269E+01
  0.2217118985643246E+01  0.2203305480271248E+01  0.2189578038359037E+01  0.2175936123698106E+01  0.2162379203420727E+01
  0.2148906747979152E+01  0.2135518231124915E+01  0.2122213129888283E+01  0.2108990924557825E+01  0.2095851098660109E+01
  0.2082793138939535E+01  0.2069816535338283E+01  0.2056920780976390E+01  0.2044105372131951E+01  0.2031369808221437E+01
  0.2018713591780152E+01  0.2006136228442799E+01  0.1993637226924162E+01  0.1981216098999923E+01  0.1968872359487595E+01
  0.1956605526227552E+01  0.1944415120064221E+01  0.1932300664827346E+01  0.1920261687313397E+01  0.1908297717267087E+01
  0.1896408287362994E+01  0.1884592933187318E+01  0.1872851193219736E+01  0.1861182608815373E+01  0.1849586724186892E+01
  0.1838063086386677E+01  0.1826611245289160E+01  0.1815230753573226E+01  0.1803921166704741E+01  0.1792682042919194E+01
  0.1781512943204429E+01  0.1770413431283512E+01  0.1759383073597681E+01  0.1748421439289411E+01  0.1737528100185588E+01
  0.1726702630780775E+01  0.1715944608220604E+01  0.1705253612285251E+01  0.1694629225373022E+01  0.1684071032484047E+01
  0.1673578621204057E+01  0.1663151581688288E+01  0.1652789506645467E+01  0.1642491991321902E+01  0.1632258633485673E+01
  0.1622089033410915E+01  0.1611982793862216E+01  0.1601939520079089E+01  0.1591958819760559E+01  0.1582040303049837E+01
  0.1572183582519093E+01  0.1562388273154317E+01  0.1552653992340289E+01  0.1542980359845629E+01  0.1533366997807943E+01
  0.1523813530719069E+01  0.1514319585410399E+01  0.1504884791038315E+01  0.1495508779069695E+01  0.1486191183267521E+01
  0.1476931639676575E+01  0.1467729786609214E+01  0.1458585264631254E+01  0.1449497716547922E+01  0.1440466787389907E+01
  0.1431492124399496E+01  0.1422573377016785E+01  0.1413710196865999E+01  0.1404902237741879E+01  0.1396149155596155E+01
  0.1387450608524114E+01  0.1378806256751234E+01  0.1370215762619928E+01  0.1361678790576339E+01  0.1353195007157243E+01
  0.1344764080977021E+01  0.1336385682714714E+01  0.1328059485101154E+01  0.1319785162906193E+01  0.1311562392925989E+01
  0.1303390853970384E+01  0.1295270226850363E+01  0.1287200194365572E+01  0.1279180441291947E+01  0.1271210654369386E+01
  0.1263290522289520E+01  0.1255419735683551E+01  0.1247597987110169E+01  0.1239824971043537E+01  0.1232100383861367E+01
  0.1224423923833051E+01  0.1216795291107883E+01  0.1209214187703338E+01  0.1201680317493442E+01  0.1194193386197193E+01
  0.1186753101367079E+01  0.1179359172377646E+01  0.1172011310414150E+01  0.1164709228461272E+01  0.1157452641291913E+01
  0.1150241265456041E+01  0.1143074819269636E+01  0.1135953022803671E+01  0.1128875597873190E+01  0.1121842268026433E+01
  0.1114852758534040E+01  0.1107906796378324E+01  0.1101004110242603E+01  0.1094144430500600E+01  0.1087327489205915E+01
  0.1080553020081559E+01  0.1073820758509546E+01  0.1067130441520568E+01  0.1060481807783714E+01  0.1053874597596266E+01
  0.1047308552873554E+01  0.1040783417138875E+01  0.1034298935513473E+01  0.1027854854706587E+01  0.1021450923005553E+01
  0.1015086890265977E+01  0.1008762507901958E+01  0.1002477528876384E+01  0.9962317076912731E+00  0.9900248003781974E+00
  0.9838565644887431E+00  0.9777267590850436E+00  0.9716351447303696E+00  0.9655814834797710E+00  0.9595655388707903E+00
  0.9535870759142205E+00  0.9476458610849281E+00  0.9417416623127328E+00  0.9358742489733368E+00  0.9300433918793244E+00
  0.9242488632712043E+00  0.9184904368085145E+00  0.9127678875609830E+00  0.9070809919997360E+00  0.9014295279885745E+00
  0.8958132747752923E+00  0.8902320129830545E+00  0.8846855246018295E+00  0.8791735929798689E+00  0.8736960028152515E+00
  0.8682525401474684E+00  0.8628429923490681E+00  0.8574671481173500E+00  0.8521247974661087E+00  0.8468157317174358E+00
  0.8415397434935662E+00  0.8362966267087781E+00  0.8310861765613430E+00  0.8259081895255272E+00  0.8207624633436380E+00
  0.8156487970181282E+00  0.8105669908037425E+00  0.8055168461997154E+00  0.8004981659420184E+00  0.7955107539956507E+00
  0.7905544155469888E+00  0.7856289569961715E+00  0.7807341859495392E+00  0.7758699112121208E+00  0.7710359427801595E+00
  0.7662320918336984E+00  0.7614581707292011E+00  0.7567139929922224E+00  0.7519993733101253E+00  0.7473141275248401E+00
  0.7426580726256744E+00  0.7380310267421630E+00  0.7334328091369634E+00  0.7288632401987967E+00  0.7243221414354295E+00
  0.7198093354667067E+00  0.7153246460176179E+00  0.7108678979114148E+00  0.7064389170627683E+00  0.7020375304709655E+00
  0.6976635662131569E+00  0.6933168534376379E+00  0.6889972223571762E+00  0.6847045042423796E+00  0.6804385314151026E+00
  0.6761991372419018E+00  0.6719861561275234E+00  0.6677994235084364E+00  0.6636387758464029E+00  0.6595040506220929E+00
  0.6553950863287316E+00  0.6513117224657964E+00  0.6472537995327435E+00  0.6432211590227792E+00  0.6392136434166688E+00
  0.6352310961765810E+00  0.6312733617399778E+00  0.6273402855135348E+00  0.6234317138671037E+00  0.6195474941277118E+00
  0.6156874745735954E+00  0.6118515044282785E+00  0.6080394338546800E+00  0.6042511139492607E+00  0.6004863967362093E+00
  0.5967451351616581E+00  0.5930271830879443E+00  0.5893323952878980E+00  0.5856606274391707E+00  0.5820117361185972E+00
  0.5783855787965951E+00  0.5747820138315942E+00  0.5712009004645070E+00  0.5676420988132298E+00  0.5641054698671775E+00
  0.5605908754818553E+00  0.5570981783734599E+00  0.5536272421135210E+00  0.5501779311235693E+00  0.5467501106698417E+00
  0.5433436468580183E+00  0.5399584066279930E+00  0.5365942577486734E+00  0.5332510688128200E+00  0.5299287092319095E+00
  0.5266270492310363E+00  0.5233459598438417E+00  0.5200853129074782E+00  0.5168449810576000E+00  0.5136248377233920E+00
  0.5104247571226233E+00  0.5072446142567351E+00  0.5040842849059574E+00  0.5009436456244576E+00  0.4978225737355166E+00
  0.4947209473267403E+00  0.4916386452452947E+00  0.4885755470931753E+00  0.4855315332225019E+00  0.4825064847308480E+00
  0.4795002834565948E+00  0.4765128119743150E+00  0.4735439535901877E+00  0.4705935923374388E+00  0.4676616129718125E+00
  0.4647479009670669E+00  0.4618523425105049E+00  0.4589748244985249E+00  0.4561152345322055E+00  0.4532734609129114E+00
  0.4504493926379341E+00  0.4476429193961547E+00  0.4448539315637345E+00  0.4420823201998333E+00  0.4393279770423539E+00
  0.4365907945037138E+00  0.4338706656666426E+00  0.4311674842800037E+00  0.4284811447546480E+00  0.4258115421592852E+00
  0.4231585722163884E+00  0.4205221312981189E+00  0.4179021164222791E+00  0.4152984252482900E+00  0.4127109560731930E+00
  0.4101396078276779E+00  0.4075842800721349E+00  0.4050448729927315E+00  0.4025212873975123E+00  0.4000134247125257E+00
  0.3975211869779741E+00  0.3950444768443859E+00  0.3925831975688139E+00  0.3901372530110561E+00  0.3877065476299000E+00
  0.3852909864793914E+00  0.3828904752051248E+00  0.3805049200405584E+00  0.3781342278033513E+00  0.3757783058917243E+00
  0.3734370622808399E+00  0.3711104055192119E+00  0.3687982447251305E+00  0.3665004895831130E+00  0.3642170503403754E+00
  0.3619478378033278E+00  0.3596927633340888E+00  0.3574517388470240E+00  0.3552246768053055E+00  0.3530114902174928E+00
  0.3508120926341313E+00  0.3486263981443813E+00  0.3464543213726581E+00  0.3442957774752980E+00  0.3421506821372446E+00
  0.3400189515687548E+00  0.3379005025021257E+00  0.3357952521884427E+00  0.3337031183943466E+00  0.3316240193988221E+00
  0.3295578739900031E+00  0.3275046014620042E+00  0.3254641216117660E+00  0.3234363547359220E+00  0.3214212216276859E+00
  0.3194186435737575E+00  0.3174285423512475E+00  0.3154508402246223E+00  0.3134854599426677E+00  0.3115323247354715E+00
  0.3095913583114216E+00  0.3076624848542311E+00  0.3057456290199730E+00  0.3038407159341378E+00  0.3019476711887092E+00
  0.3000664208392569E+00  0.2981968914020485E+00  0.2963390098511787E+00  0.2944927036157171E+00  0.2926579005768727E+00
  0.2908345290651774E+00  0.2890225178576853E+00  0.2872217961751911E+00  0.2854322936794659E+00  0.2836539404705082E+00
  0.2818866670838141E+00  0.2801304044876633E+00  0.2783850840804228E+00  0.2766506376878667E+00  0.2749269975605131E+00
  0.2732140963709775E+00  0.2715118672113420E+00  0.2698202435905434E+00  0.2681391594317727E+00  0.2664685490698970E+00
  0.2648083472488920E+00  0.2631584891192934E+00  0.2615189102356638E+00  0.2598895465540744E+00  0.2582703344296035E+00
  0.2566612106138499E+00  0.2550621122524619E+00  0.2534729768826816E+00  0.2518937424309054E+00  0.2503243472102581E+00
  0.2487647299181827E+00  0.2472148296340465E+00  0.2456745858167600E+00  0.2441439383024119E+00  0.2426228273019188E+00
  0.2411111933986888E+00  0.2396089775463006E+00  0.2381161210661956E+00  0.2366325656453863E+00  0.2351582533341776E+00
  0.2336931265439026E+00  0.2322371280446717E+00  0.2307902009631378E+00  0.2293522887802734E+00  0.2279233353291622E+00
  0.2265032847928042E+00  0.2250920817019357E+00  0.2236896709328601E+00  0.2222959977052953E+00  0.2209110075802331E+00
  0.2195346464578108E+00  0.2181668605751985E+00  0.2168075965044972E+00  0.2154568011506504E+00  0.2141144217493712E+00
  0.2127804058650783E+00  0.2114547013888478E+00  0.2101372565363758E+00  0.2088280198459558E+00  0.2075269401764666E+00
  0.2062339667053737E+00  0.2049490489267426E+00  0.2036721366492656E+00  0.2024031799942992E+00  0.2011421293939141E+00
  0.1998889355889591E+00  0.1986435496271347E+00  0.1974059228610789E+00  0.1961760069464671E+00  0.1949537538401205E+00
  0.1937391157981295E+00  0.1925320453739855E+00  0.1913324954167276E+00  0.1901404190690976E+00  0.1889557697657092E+00
  0.1877785012312267E+00  0.1866085674785547E+00  0.1854459228070421E+00  0.1842905218006925E+00  0.1831423193263901E+00
  0.1820012705321336E+00  0.1808673308452824E+00  0.1797404559708133E+00  0.1786206018895880E+00  0.1775077248566313E+00
  0.1764017813994200E+00  0.1753027283161825E+00  0.1742105226742083E+00  0.1731251218081681E+00  0.1720464833184465E+00
  0.1709745650694802E+00  0.1699093251881120E+00  0.1688507220619499E+00  0.1677987143377407E+00  0.1667532609197497E+00
  0.1657143209681544E+00  0.1646818538974438E+00  0.1636558193748319E+00  0.1626361773186762E+00  0.1616228878969113E+00
  0.1606159115254878E+00  0.1596152088668226E+00  0.1586207408282588E+00  0.1576324685605345E+00  0.1566503534562612E+00
  0.1556743571484122E+00  0.1547044415088189E+00  0.1537405686466777E+00  0.1527827009070655E+00  0.1518308008694631E+00
  0.1508848313462908E+00  0.1499447553814494E+00  0.1490105362488725E+00  0.1480821374510863E+00  0.1471595227177795E+00
  0.1462426560043799E+00  0.1453315014906428E+00  0.1444260235792444E+00  0.1435261868943872E+00  0.1426319562804102E+00
  0.1417432968004118E+00  0.1408601737348779E+00  0.1399825525803193E+00  0.1391103990479173E+00  0.1382436790621783E+00
  0.1373823587595952E+00  0.1365264044873181E+00  0.1356757828018324E+00  0.1348304604676452E+00  0.1339904044559790E+00
  0.1331555819434745E+00  0.1323259603109006E+00  0.1315015071418714E+00  0.1306821902215724E+00  0.1298679775354931E+00
  0.1290588372681682E+00  0.1282547378019255E+00  0.1274556477156421E+00  0.1266615357835072E+00  0.1258723709737938E+00
  0.1250881224476355E+00  0.1243087595578122E+00  0.1235342518475436E+00  0.1227645690492881E+00  0.1219996810835499E+00
  0.1212395580576932E+00  0.1204841702647632E+00  0.1197334881823142E+00  0.1189874824712447E+00  0.1182461239746395E+00
  0.1175093837166173E+00  0.1167772329011881E+00  0.1160496429111140E+00  0.1153265853067788E+00  0.1146080318250637E+00
  0.1138939543782288E+00  0.1131843250528031E+00  0.1124791161084782E+00  0.1117782999770112E+00  0.1110818492611322E+00
  0.1103897367334586E+00  0.1097019353354163E+00  0.1090184181761663E+00  0.1083391585315380E+00  0.1076641298429681E+00
  0.1069933057164466E+00  0.1063266599214678E+00  0.1056641663899881E+00  0.1050057992153891E+00  0.1043515326514472E+00
  0.1037013411113084E+00  0.1030551991664697E+00  0.1024130815457658E+00  0.1017749631343614E+00  0.1011408189727496E+00
  0.1005106242557554E+00  0.9988435433154540E-01  0.9926198470064258E-01  0.9864349101494642E-01  0.9802884907675936E-01
  0.9741803483781736E-01  0.9681102439832671E-01  0.9620779400600622E-01  0.9560832005513391E-01  0.9501257908559960E-01
  0.9442054778196228E-01  0.9383220297251300E-01  0.9324752162834188E-01  0.9266648086241183E-01  0.9208905792863539E-01
  0.9151523022095806E-01  0.9094497527244487E-01  0.9037827075437391E-01  0.8981509447533260E-01  0.8925542438032015E-01
  0.8869923854985383E-01  0.8814651519908044E-01  0.8759723267689230E-01  0.8705136946504741E-01  0.8650890417729468E-01
  0.8596981555850378E-01  0.8543408248379813E-01  0.8490168395769424E-01  0.8437259911324375E-01  0.8384680721118069E-01
  0.8332428763907254E-01  0.8280501991047581E-01  0.8228898366409562E-01  0.8177615866294935E-01  0.8126652479353480E-01
  0.8076006206500141E-01  0.8025675060832690E-01  0.7975657067549637E-01  0.7925950263868650E-01  0.7876552698945292E-01
  0.7827462433792159E-01  0.7778677541198387E-01  0.7730196105649557E-01  0.7682016223247934E-01  0.7634136001633093E-01
  0.7586553559902907E-01  0.7539267028534856E-01  0.7492274549307712E-01  0.7445574275223611E-01  0.7399164370430375E-01
  0.7353043010144242E-01  0.7307208380572904E-01  0.7261658678838874E-01  0.7216392112903179E-01  0.7171406901489379E-01
  0.7126701274007884E-01  0.7082273470480624E-01  0.7038121741465908E-01  0.6994244347983787E-01  0.6950639561441530E-01
  0.6907305663559465E-01  0.6864240946297123E-01  0.6821443711779640E-01  0.6778912272224442E-01  0.6736644949868226E-01
  0.6694640076894186E-01  0.6652895995359534E-01  0.6611411057123216E-01  0.6570183623774017E-01  0.6529212066558787E-01
  0.6488494766310983E-01  0.6448030113379445E-01  0.6407816507557404E-01  0.6367852358011750E-01  0.6328136083212492E-01
  0.6288666110862501E-01  0.6249440877827418E-01  0.6210458830065838E-01  0.6171718422559620E-01  0.6133218119244555E-01
  0.6094956392941100E-01  0.6056931725285379E-01  0.6019142606660377E-01  0.5981587536127318E-01  0.5944265021357246E-01
  0.5907173578562774E-01  0.5870311732430036E-01  0.5833678016050817E-01  0.5797270970854789E-01  0.5761089146542055E-01
  0.5725131101015723E-01  0.5689395400314710E-01  0.5653880618546688E-01  0.5618585337821189E-01  0.5583508148182847E-01
  0.5548647647544805E-01  0.5514002441622246E-01  0.5479571143866081E-01  0.5445352375396733E-01  0.5411344764938129E-01
  0.5377546948751712E-01  0.5343957570570690E-01  0.5310575281534317E-01  0.5277398740122335E-01  0.5244426612089520E-01
  0.5211657570400331E-01  0.5179090295163684E-01  0.5146723473567805E-01  0.5114555799815212E-01  0.5082585975057756E-01
  0.5050812707331807E-01  0.5019234711493479E-01  0.4987850709153999E-01  0.4956659428615110E-01  0.4925659604804587E-01
  0.4894849979211834E-01  0.4864229299823552E-01  0.4833796321059482E-01  0.4803549803708244E-01  0.4773488514863197E-01
  0.4743611227858450E-01  0.4713916722204872E-01  0.4684403783526203E-01  0.4655071203495213E-01  0.4625917779769957E-01
  0.4596942315930067E-01  0.4568143621413114E-01  0.4539520511451039E-01  0.4511071807006643E-01  0.4482796334710125E-01
  0.4454692926795728E-01  0.4426760421038382E-01  0.4398997660690479E-01  0.4371403494418643E-01  0.4343976776240618E-01
  0.4316716365462216E-01  0.4289621126614295E-01  0.4262689929389855E-01  0.4235921648581174E-01  0.4209315164017016E-01
  0.4182869360499961E-01  0.4156583127743754E-01  0.4130455360310789E-01  0.4104484957549639E-01  0.4078670823532721E-01
  0.4053011866994035E-01  0.4027507001266981E-01  0.4002155144222351E-01  0.3976955218206382E-01  0.3951906149978940E-01
  0.3927006870651831E-01  0.3902256315627290E-01  0.3877653424536540E-01  0.3853197141178582E-01  0.3828886413459080E-01
  0.3804720193329484E-01  0.3780697436726280E-01  0.3756817103510460E-01  0.3733078157407237E-01  0.3709479565945902E-01
  0.3686020300399984E-01  0.3662699335727627E-01  0.3639515650512238E-01  0.3616468226903426E-01  0.3593556050558219E-01
  0.3570778110582611E-01  0.3548133399473431E-01  0.3525620913060597E-01  0.3503239650449711E-01  0.3480988613965051E-01
  0.3458866809093014E-01  0.3436873244425984E-01  0.3415006931606674E-01  0.3393266885272950E-01  0.3371652123003212E-01
  0.3350161665262280E-01  0.3328794535347929E-01  0.3307549759337962E-01  0.3286426366038008E-01  0.3265423386929953E-01
  0.3244539856121088E-01  0.3223774810294060E-01  0.3203127288657581E-01  0.3182596332897983E-01  0.3162180987131650E-01
  0.3141880297858382E-01  0.3121693313915735E-01  0.3101619086434368E-01  0.3081656668794449E-01  0.3061805116583212E-01
  0.3042063487553676E-01  0.3022430841584555E-01  0.3002906240641536E-01  0.2983488748739839E-01  0.2964177431908204E-01
  0.2944971358154377E-01  0.2925869597432102E-01  0.2906871221609764E-01  0.2887975304440673E-01  0.2869180921535152E-01
  0.2850487150334423E-01  0.2831893070086402E-01  0.2813397761823551E-01  0.2795000308342727E-01  0.2776699794187249E-01
  0.2758495305631217E-01  0.2740385930666165E-01  0.2722370758990166E-01  0.2704448881999483E-01  0.2686619392782872E-01
  0.2668881386118610E-01  0.2651233958474405E-01  0.2633676208010234E-01  0.2616207234584313E-01  0.2598826139762218E-01
  0.2581532026829317E-01  0.2564324000806669E-01  0.2547201168470437E-01  0.2530162638375031E-01  0.2513207520880022E-01
  0.2496334928181042E-01  0.2479543974344749E-01  0.2462833775347995E-01  0.2446203449121413E-01  0.2429652115597460E-01
  0.2413178896763136E-01  0.2396782916717491E-01  0.2380463301734106E-01  0.2364219180328671E-01  0.2348049683331815E-01
  0.2331953943967367E-01  0.2315931097936190E-01  0.2299980283505756E-01  0.2284100641605617E-01  0.2268291315928931E-01
  0.2252551453040240E-01  0.2236880202489601E-01  0.2221276716933300E-01  0.2205740152261271E-01  0.2190269667731405E-01
  0.2174864426110894E-01  0.2159523593824802E-01  0.2144246341111976E-01  0.2129031842188524E-01  0.2113879275418951E-01
  0.2098787823495122E-01  0.2083756673623252E-01  0.2068785017719007E-01  0.2053872052610875E-01  0.2039016980251966E-01
  0.2024219007940349E-01  0.2009477348548066E-01  0.1994791220758925E-01  0.1980159849315177E-01  0.1965582465273226E-01
  0.1951058306268396E-01  0.1936586616788881E-01  0.1922166648458915E-01  0.1907797660331288E-01  0.1893478919189146E-01
  0.1879209699857210E-01  0.1864989285522355E-01  0.1850816968063606E-01  0.1836692048391476E-01  0.1822613836796676E-01
  0.1808581653308089E-01  0.1794594828059945E-01  0.1780652701668144E-01  0.1766754625615524E-01  0.1752899962646031E-01
  0.1739088087167541E-01  0.1725318385663182E-01  0.1711590257110928E-01  0.1697903113411199E-01  0.1684256379822233E-01
  0.1670649495402840E-01  0.1657081913462287E-01  0.1643553102016862E-01  0.1630062544252755E-01  0.1616609738994780E-01
  0.1603194201180469E-01  0.1589815462339037E-01  0.1576473071074605E-01  0.1563166593553149E-01  0.1549895613992473E-01
  0.1536659735154595E-01  0.1523458578839767E-01  0.1510291786381389E-01  0.1497159019141036E-01  0.1484059959002702E-01
  0.1470994308865430E-01  0.1457961793133330E-01  0.1444962158202086E-01  0.1431995172940877E-01  0.1419060629168652E-01
  0.1406158342123738E-01  0.1393288150925528E-01  0.1380449919027167E-01  0.1367643534657969E-01  0.1354868911254333E-01
  0.1342125987877869E-01  0.1329414729619415E-01  0.1316735127987601E-01  0.1304087201280580E-01  0.1291470994939534E-01
  0.1278886581882538E-01  0.1266334062817317E-01  0.1253813566531478E-01  0.1241325250158727E-01  0.1228869299419614E-01
  0.1216445928835317E-01  0.1204055381913022E-01  0.1191697931301390E-01  0.1179373878914721E-01  0.1167083556024295E-01
  0.1154827323315593E-01  0.1142605570909902E-01  0.1130418718349024E-01  0.1118267214541778E-01  0.1106151537671002E-01
  0.1094072195059896E-01  0.1082029722996516E-01  0.1070024686515384E-01  0.1058057679135164E-01  0.1046129322551529E-01
  0.1034240266284307E-01  0.1022391187278275E-01  0.1010582789456813E-01  0.9988158032279976E-02  0.9870909849426205E-02
  0.9754091163038804E-02  0.9637710037285046E-02  0.9521774776592828E-02  0.9406293918290459E-02  0.9291276224763277E-02
  0.9176730675130147E-02  0.9062666456445463E-02  0.8949092954432296E-02  0.8836019743754975E-02  0.8723456577840610E-02
  0.8611413378260196E-02  0.8499900223682128E-02  0.8388927338411799E-02  0.8278505080533219E-02  0.8168643929669367E-02
  0.8059354474379906E-02  0.7950647399216682E-02  0.7842533471457767E-02  0.7735023527543283E-02  0.7628128459237107E-02
  0.7521859199539717E-02  0.7416226708378856E-02  0.7311241958105636E-02  0.7206915918824941E-02  0.7103259543589613E-02
  0.7000283753489239E-02  0.6897999422664341E-02  0.6796417363278640E-02  0.6695548310481080E-02  0.6595402907390900E-02
  0.6495991690138971E-02  0.6397325072998484E-02  0.6299413333638703E-02  0.6202266598534835E-02  0.6105894828567384E-02
  0.6010307804843615E-02  0.5915515114773531E-02  0.5821526138432320E-02  0.5728350035239890E-02  0.5635995730988262E-02
  0.5544471905245706E-02  0.5453786979166030E-02  0.5363949103730099E-02  0.5274966148445306E-02  0.5186845690527513E-02
  0.5099595004588346E-02  0.5013221052849292E-02  0.4927730475902553E-02  0.4843129584036526E-02  0.4759424349142407E-02
  0.4676620397216648E-02  0.4594723001471709E-02  0.4513737076066205E-02  0.4433667170463187E-02  0.4354517464423882E-02
  0.4276291763641779E-02  0.4198993496020231E-02  0.4122625708595281E-02  0.4047191065102537E-02  0.3972691844186043E-02
  0.3899129938244817E-02  0.3826506852910922E-02  0.3754823707151386E-02  0.3684081233984516E-02  0.3614279781799599E-02
  0.3545419316267403E-02  0.3477499422827575E-02  0.3410519309737333E-02  0.3344477811665258E-02  0.3279373393811811E-02
  0.3215204156538006E-02  0.3151967840482207E-02  0.3089661832144130E-02  0.3028283169914518E-02  0.2967828550528042E-02
  0.2908294335916495E-02  0.2849676560438805E-02  0.2791970938463901E-02  0.2735172872282443E-02  0.2679277460322703E-02
  0.2624279505646200E-02  0.2570173524698534E-02  0.2516953756290736E-02  0.2464614170786856E-02  0.2413148479473472E-02
  0.2362550144087264E-02  0.2312812386477086E-02  0.2263928198377276E-02  0.2215890351269839E-02  0.2168691406313017E-02
  0.2122323724314983E-02  0.2076779475731704E-02  0.2032050650668806E-02  0.1988129068867946E-02  0.1945006389659042E-02
  0.1902674121860388E-02  0.1861123633609625E-02  0.1820346162109282E-02  0.1780332823271363E-02  0.1741074621246718E-02
  0.1702562457825150E-02  0.1664787141693723E-02  0.1627739397541204E-02  0.1591409874997633E-02  0.1555789157398781E-02
  0.1520867770366170E-02  0.1486636190194153E-02  0.1453084852036366E-02  0.1420204157884654E-02  0.1387984484334528E-02
  0.1356416190131649E-02  0.1325489623494935E-02  0.1295195129212396E-02  0.1265523055506573E-02  0.1236463760667103E-02
  0.1208007619448589E-02  0.1180145029232581E-02  0.1152866415953039E-02  0.1126162239785126E-02  0.1100023000598011E-02
  0.1074439243172350E-02  0.1049401562184087E-02  0.1024900606956325E-02  0.1000927085981605E-02  0.9774717712171597E-03
  0.9545255021562339E-03  0.9320791896787140E-03  0.9101238196847585E-03  0.8886504565152603E-03  0.8676502461632872E-03
  0.8471144192809293E-03  0.8270342939859711E-03  0.8074012784732263E-03  0.7882068734353256E-03  0.7694426742980268E-03
  0.7511003732751014E-03  0.7331717612480171E-03  0.7156487294756877E-03  0.6985232711396085E-03  0.6817874827297096E-03
  0.6654335652763893E-03  0.6494538254339907E-03  0.6338406764212118E-03  0.6185866388237428E-03  0.6036843412645014E-03
  0.5891265209467224E-03  0.5749060240751633E-03  0.5610158061605829E-03  0.5474489322126213E-03  0.5341985768260570E-03
  0.5212580241654907E-03  0.5086206678531866E-03  0.4962800107649140E-03  0.4842296647384252E-03  0.4724633501991205E-03
  0.4609748957073524E-03  0.4497582374316979E-03  0.4388074185524298E-03  0.4281165885992847E-03  0.4176800027275038E-03
  0.4074920209360628E-03  0.3975471072317695E-03  0.3878398287429107E-03  0.3783648547859406E-03  0.3691169558885952E-03
  0.3600910027727088E-03  0.3512819652998754E-03  0.3426849113829992E-03  0.3342950058666370E-03  0.3261075093789491E-03
  0.3181177771579173E-03  0.3103212578544666E-03  0.3027134923148803E-03  0.2952901123449317E-03  0.2880468394579523E-03
  0.2809794836090038E-03  0.2740839419171992E-03  0.2673561973781299E-03  0.2607923175682532E-03  0.2543884533430103E-03
  0.2481408375303347E-03  0.2420457836211744E-03  0.2360996844584811E-03  0.2302990109261209E-03  0.2246403106390376E-03
  0.2191202066359260E-03  0.2137353960756098E-03  0.2084826489382390E-03  0.2033588067323522E-03  0.1983607812087888E-03
  0.1934855530823553E-03  0.1887301707621293E-03  0.1840917490911579E-03  0.1795674680963196E-03  0.1751545717490179E-03
  0.1708503667373480E-03  0.1666522212503114E-03  0.1625575637746180E-03  0.1585638819045572E-03  0.1546687211653933E-03
  0.1508696838506813E-03  0.1471644278738604E-03  0.1435506656344775E-03  0.1400261628992953E-03  0.1365887376985682E-03
  0.1332362592376992E-03  0.1299666468244727E-03  0.1267778688120290E-03  0.1236679415577132E-03  0.1206349283979171E-03
  0.1176769386389918E-03  0.1147921265642973E-03  0.1119786904574403E-03  0.1092348716417025E-03  0.1065589535356761E-03
  0.1039492607250865E-03  0.1014041580507659E-03  0.9892204971273238E-04  0.9650137839030920E-04  0.9414062437820684E-04
  0.9183830473847757E-04  0.8959297246824122E-04  0.8740321568306314E-04  0.8526765681587490E-04  0.8318495183128605E-04
  0.8115378945515877E-04  0.7917289041929183E-04  0.7724100672105504E-04  0.7535692089781473E-04  0.7351944531597604E-04
  0.7172742147447133E-04  0.6997971932251239E-04  0.6827523659142427E-04  0.6661289814036668E-04  0.6499165531576558E-04
  0.6341048532424221E-04  0.6186839061885743E-04  0.6036439829846492E-04  0.5889755951997555E-04  0.5746694892332960E-04
  0.5607166406897371E-04  0.5471082488763890E-04  0.5338357314221544E-04  0.5208907190151958E-04  0.5082650502574769E-04
  0.4959507666341133E-04  0.4839401075955636E-04  0.4722255057505339E-04  0.4607995821676404E-04  0.4496551417838027E-04
  0.4387851689173595E-04  0.4281828228839327E-04  0.4178414337130623E-04  0.4077544979636664E-04  0.3979156746363854E-04
  0.3883187811809023E-04  0.3789577895963145E-04  0.3698268226227463E-04  0.3609201500222665E-04  0.3522321849473343E-04
  0.3437574803949507E-04  0.3354907257447278E-04  0.3274267433791134E-04  0.3195604853840388E-04  0.3118870303282773E-04
  0.3044015801198272E-04  0.2970994569376534E-04  0.2899761002371627E-04  0.2830270638277848E-04  0.2762480130211117E-04
  0.2696347218479939E-04  0.2631830703430939E-04  0.2568890418953815E-04  0.2507487206630944E-04  0.2447582890517142E-04
  0.2389140252535248E-04  0.2332123008473642E-04  0.2276495784571850E-04  0.2222224094680865E-04  0.2169274317984755E-04
  0.2117613677270969E-04  0.2067210217736168E-04  0.2018032786315396E-04  0.1970051011522320E-04  0.1923235283788517E-04
  0.1877556736290091E-04  0.1832987226250135E-04  0.1789499316705775E-04  0.1747066258728754E-04  0.1705661974088791E-04
   42     95.940         3.8581    fcc     
  0.0000000000000000E+00 -0.4678372898874628E-01 -0.9316435206650331E-01 -0.1391446329016524E+00 -0.1847263351625759E+00
 -0.2299112225176576E+00 -0.2747010586352761E+00 -0.3190976071838159E+00 -0.3631026318316573E+00 -0.4067178962471849E+00
 -0.4499451640987782E+00 -0.4927861990548208E+00 -0.5352427647836939E+00 -0.5773166249537813E+00 -0.6190095432334615E+00
 -0.6603232832911194E+00 -0.7012596087951359E+00 -0.7418202834138934E+00 -0.7820070708157738E+00 -0.8218217346691588E+00
 -0.8612660386424311E+00 -0.9003417464039729E+00 -0.9390506216221652E+00 -0.9773944279653919E+00 -0.1015374929102033E+01
 -0.1052993888700470E+01 -0.1090253070429088E+01 -0.1127154237956265E+01 -0.1163699154950387E+01 -0.1199889585079835E+01
 -0.1235727292012989E+01 -0.1271214039418233E+01 -0.1306351590963947E+01 -0.1341141710318515E+01 -0.1375586161150319E+01
 -0.1409686707127740E+01 -0.1443445111919161E+01 -0.1476863139192963E+01 -0.1509942552617528E+01 -0.1542685115861239E+01
 -0.1575092592592479E+01 -0.1607166746479627E+01 -0.1638909341191067E+01 -0.1670322140395181E+01 -0.1701406907760350E+01
 -0.1732165406954957E+01 -0.1762599401647384E+01 -0.1792710655506013E+01 -0.1822500932199226E+01 -0.1851971995395405E+01
 -0.1881125608762931E+01 -0.1909963535970187E+01 -0.1938487540685555E+01 -0.1966699386577417E+01 -0.1994600837314156E+01
 -0.2022193656564152E+01 -0.2049479607995788E+01 -0.2076460455277446E+01 -0.2103137962077509E+01 -0.2129513892064358E+01
 -0.2155590008906374E+01 -0.2181368076271942E+01 -0.2206849857829441E+01 -0.2232037117247255E+01 -0.2256931618193765E+01
 -0.2281535124337352E+01 -0.2305849399346401E+01 -0.2329876206889292E+01 -0.2353617310634407E+01 -0.2377074474250129E+01
 -0.2400249461404839E+01 -0.2423144035766919E+01 -0.2445759961004752E+01 -0.2468099000786721E+01 -0.2490162918781205E+01
 -0.2511953478656588E+01 -0.2533472444081252E+01 -0.2554721578723578E+01 -0.2575702646251949E+01 -0.2596417410334746E+01
 -0.2616867634640354E+01 -0.2637055082837152E+01 -0.2656981518593521E+01 -0.2676648705577847E+01 -0.2696058407458508E+01
 -0.2715212387903889E+01 -0.2734112410582371E+01 -0.2752760239162335E+01 -0.2771157637312164E+01 -0.2789306368700242E+01
 -0.2807208196994947E+01 -0.2824864885864664E+01 -0.2842278198977774E+01 -0.2859449900002659E+01 -0.2876381752607701E+01
 -0.2893075520461283E+01 -0.2909532967231786E+01 -0.2925755856587592E+01 -0.2941745952197083E+01 -0.2957505017728642E+01
 -0.2973034816850650E+01 -0.2988337113231489E+01 -0.3003413670539542E+01 -0.3018266252443190E+01 -0.3032896622610816E+01
 -0.3047306544710801E+01 -0.3061497782411527E+01 -0.3075472099381378E+01 -0.3089231259288733E+01 -0.3102777025801977E+01
